{
  "seed": 0,
  "weightInit": "UNIFORM_XAVIER",
  "lossFunction": "CROSS_ENTROPY",
  "optimizer": {
    "type": "Adam",
    "data": {
      "learningRate": 0.01,
      "beta1": 0.8999999761581421,
      "beta2": 0.9990000128746033,
      "epsilon": 9.99999993922529E-9
    }
  },
  "updater": {
    "type": "StochasticUpdater"
  },
  "layers": [
    {},
    {},
    {},
    {},
    {},
    {
      "type": "DenseLayer",
      "activation": "MISH",
      "neurons": 32
    },
    {
      "type": "DenseLayer",
      "activation": "SOFTMAX",
      "neurons": 10
    }
  ],
  "biases": [
    [
      0.0,
      0.0,
      0.0,
      0.0,
      0.0,
      0.0,
      0.0,
      0.0,
      0.0,
      0.0,
      0.0,
      0.0,
      0.0,
      0.0,
      0.0,
      0.0,
      0.0,
      0.0,
      0.0,
      0.0,
      0.0,
      0.0,
      0.0,
      0.0,
      0.0,
      0.0,
      0.0,
      0.0,
      0.0,
      0.0,
      0.0,
      0.0,
      0.0,
      0.0,
      0.0,
      0.0,
      0.0,
      0.0,
      0.0,
      0.0,
      0.0,
      0.0,
      0.0,
      0.0,
      0.0,
      0.0,
      0.0,
      0.0,
      0.0,
      0.0,
      0.0,
      0.0,
      0.0,
      0.0,
      0.0,
      0.0,
      0.0,
      0.0,
      0.0,
      0.0,
      0.0,
      0.0,
      0.0,
      0.0,
      0.0,
      0.0,
      0.0,
      0.0,
      0.0,
      0.0,
      0.0,
      0.0,
      0.0,
      0.0,
      0.0,
      0.0,
      0.0,
      0.0,
      0.0,
      0.0,
      0.0,
      0.0,
      0.0,
      0.0,
      0.0,
      0.0,
      0.0,
      0.0,
      0.0,
      0.0,
      0.0,
      0.0,
      0.0,
      0.0,
      0.0,
      0.0,
      0.0,
      0.0,
      0.0,
      0.0,
      0.0,
      0.0,
      0.0,
      0.0,
      0.0,
      0.0,
      0.0,
      0.0,
      0.0,
      0.0,
      0.0,
      0.0,
      0.0,
      0.0,
      0.0,
      0.0,
      0.0,
      0.0,
      0.0,
      0.0,
      0.0,
      0.0,
      0.0,
      0.0,
      0.0,
      0.0,
      0.0,
      0.0,
      0.0,
      0.0,
      0.0,
      0.0,
      0.0,
      0.0,
      0.0,
      0.0,
      0.0,
      0.0,
      0.0,
      0.0,
      0.0,
      0.0,
      0.0,
      0.0,
      0.0,
      0.0,
      0.0,
      0.0,
      0.0,
      0.0,
      0.0,
      0.0,
      0.0,
      0.0,
      0.0,
      0.0,
      0.0,
      0.0,
      0.0,
      0.0,
      0.0,
      0.0,
      0.0,
      0.0,
      0.0,
      0.0,
      0.0,
      0.0,
      0.0,
      0.0,
      0.0,
      0.0,
      0.0,
      0.0,
      0.0,
      0.0,
      0.0,
      0.0,
      0.0,
      0.0,
      0.0,
      0.0,
      0.0,
      0.0,
      0.0,
      0.0,
      0.0,
      0.0,
      0.0,
      0.0,
      0.0,
      0.0,
      0.0,
      0.0,
      0.0,
      0.0,
      0.0,
      0.0,
      0.0,
      0.0,
      0.0,
      0.0,
      0.0,
      0.0,
      0.0,
      0.0,
      0.0,
      0.0,
      0.0,
      0.0,
      0.0,
      0.0,
      0.0,
      0.0,
      0.0,
      0.0,
      0.0,
      0.0,
      0.0,
      0.0,
      0.0,
      0.0,
      0.0,
      0.0,
      0.0,
      0.0,
      0.0,
      0.0,
      0.0,
      0.0,
      0.0,
      0.0,
      0.0,
      0.0,
      0.0,
      0.0,
      0.0,
      0.0,
      0.0,
      0.0,
      0.0,
      0.0,
      0.0,
      0.0,
      0.0,
      0.0,
      0.0,
      0.0,
      0.0,
      0.0,
      0.0,
      0.0,
      0.0,
      0.0,
      0.0,
      0.0,
      0.0,
      0.0,
      0.0,
      0.0,
      0.0,
      0.0,
      0.0,
      0.0,
      0.0,
      0.0,
      0.0,
      0.0,
      0.0,
      0.0,
      0.0,
      0.0,
      0.0,
      0.0,
      0.0,
      0.0,
      0.0,
      0.0,
      0.0,
      0.0,
      0.0,
      0.0,
      0.0,
      0.0,
      0.0,
      0.0,
      0.0,
      0.0,
      0.0,
      0.0,
      0.0,
      0.0,
      0.0,
      0.0,
      0.0,
      0.0,
      0.0,
      0.0,
      0.0,
      0.0,
      0.0,
      0.0,
      0.0,
      0.0,
      0.0,
      0.0,
      0.0,
      0.0,
      0.0,
      0.0,
      0.0,
      0.0,
      0.0,
      0.0,
      0.0,
      0.0,
      0.0,
      0.0,
      0.0,
      0.0,
      0.0,
      0.0,
      0.0,
      0.0,
      0.0,
      0.0,
      0.0,
      0.0,
      0.0,
      0.0,
      0.0,
      0.0,
      0.0,
      0.0,
      0.0,
      0.0,
      0.0,
      0.0,
      0.0,
      0.0,
      0.0,
      0.0,
      0.0,
      0.0,
      0.0,
      0.0,
      0.0,
      0.0,
      0.0,
      0.0,
      0.0,
      0.0,
      0.0,
      0.0,
      0.0,
      0.0,
      0.0,
      0.0,
      0.0,
      0.0,
      0.0,
      0.0,
      0.0,
      0.0,
      0.0,
      0.0,
      0.0,
      0.0,
      0.0,
      0.0,
      0.0,
      0.0,
      0.0,
      0.0,
      0.0,
      0.0,
      0.0,
      0.0,
      0.0,
      0.0,
      0.0,
      0.0,
      0.0,
      0.0,
      0.0,
      0.0,
      0.0,
      0.0,
      0.0,
      0.0,
      0.0,
      0.0,
      0.0,
      0.0,
      0.0,
      0.0,
      0.0,
      0.0,
      0.0,
      0.0,
      0.0,
      0.0,
      0.0,
      0.0,
      0.0,
      0.0,
      0.0,
      0.0,
      0.0,
      0.0,
      0.0,
      0.0,
      0.0,
      0.0,
      0.0,
      0.0,
      0.0,
      0.0,
      0.0,
      0.0,
      0.0,
      0.0,
      0.0,
      0.0,
      0.0,
      0.0,
      0.0,
      0.0,
      0.0,
      0.0,
      0.0,
      0.0,
      0.0,
      0.0,
      0.0,
      0.0,
      0.0,
      0.0,
      0.0,
      0.0,
      0.0,
      0.0,
      0.0,
      0.0,
      0.0,
      0.0,
      0.0,
      0.0,
      0.0,
      0.0,
      0.0,
      0.0,
      0.0,
      0.0,
      0.0,
      0.0,
      0.0,
      0.0,
      0.0,
      0.0,
      0.0,
      0.0,
      0.0,
      0.0,
      0.0,
      0.0,
      0.0,
      0.0,
      0.0,
      0.0,
      0.0,
      0.0,
      0.0,
      0.0,
      0.0,
      0.0,
      0.0,
      0.0,
      0.0,
      0.0,
      0.0,
      0.0,
      0.0,
      0.0,
      0.0,
      0.0,
      0.0,
      0.0,
      0.0,
      0.0,
      0.0,
      0.0,
      0.0,
      0.0,
      0.0,
      0.0,
      0.0,
      0.0,
      0.0,
      0.0,
      0.0,
      0.0,
      0.0,
      0.0,
      0.0,
      0.0,
      0.0,
      0.0,
      0.0,
      0.0,
      0.0,
      0.0,
      0.0,
      0.0,
      0.0,
      0.0,
      0.0,
      0.0,
      0.0,
      0.0,
      0.0,
      0.0,
      0.0,
      0.0,
      0.0,
      0.0,
      0.0,
      0.0,
      0.0,
      0.0,
      0.0,
      0.0,
      0.0,
      0.0,
      0.0,
      0.0,
      0.0,
      0.0,
      0.0,
      0.0,
      0.0,
      0.0,
      0.0,
      0.0,
      0.0,
      0.0,
      0.0,
      0.0,
      0.0,
      0.0,
      0.0,
      0.0,
      0.0,
      0.0,
      0.0,
      0.0,
      0.0,
      0.0,
      0.0,
      0.0,
      0.0,
      0.0,
      0.0,
      0.0,
      0.0,
      0.0,
      0.0,
      0.0,
      0.0,
      0.0,
      0.0,
      0.0,
      0.0,
      0.0,
      0.0,
      0.0,
      0.0,
      0.0,
      0.0,
      0.0,
      0.0,
      0.0,
      0.0,
      0.0,
      0.0,
      0.0,
      0.0,
      0.0,
      0.0,
      0.0,
      0.0,
      0.0,
      0.0,
      0.0,
      0.0,
      0.0,
      0.0,
      0.0,
      0.0,
      0.0,
      0.0,
      0.0,
      0.0,
      0.0,
      0.0,
      0.0,
      0.0,
      0.0,
      0.0,
      0.0,
      0.0,
      0.0,
      0.0,
      0.0,
      0.0,
      0.0,
      0.0,
      0.0,
      0.0,
      0.0,
      0.0,
      0.0,
      0.0,
      0.0,
      0.0,
      0.0,
      0.0,
      0.0,
      0.0,
      0.0,
      0.0,
      0.0,
      0.0,
      0.0,
      0.0,
      0.0,
      0.0,
      0.0,
      0.0,
      0.0,
      0.0,
      0.0,
      0.0,
      0.0,
      0.0,
      0.0,
      0.0,
      0.0,
      0.0,
      0.0,
      0.0,
      0.0,
      0.0,
      0.0,
      0.0,
      0.0,
      0.0,
      0.0,
      0.0,
      0.0,
      0.0,
      0.0,
      0.0,
      0.0,
      0.0,
      0.0,
      0.0,
      0.0,
      0.0,
      0.0,
      0.0,
      0.0,
      0.0,
      0.0,
      0.0,
      0.0,
      0.0,
      0.0,
      0.0,
      0.0,
      0.0,
      0.0,
      0.0,
      0.0,
      0.0,
      0.0,
      0.0,
      0.0,
      0.0,
      0.0,
      0.0,
      0.0,
      0.0,
      0.0,
      0.0,
      0.0,
      0.0,
      0.0,
      0.0,
      0.0,
      0.0,
      0.0,
      0.0,
      0.0,
      0.0,
      0.0,
      0.0,
      0.0,
      0.0,
      0.0,
      0.0,
      0.0,
      0.0,
      0.0,
      0.0,
      0.0,
      0.0,
      0.0,
      0.0,
      0.0,
      0.0,
      0.0,
      0.0,
      0.0,
      0.0,
      0.0,
      0.0,
      0.0,
      0.0,
      0.0,
      0.0,
      0.0,
      0.0,
      0.0,
      0.0,
      0.0,
      0.0,
      0.0,
      0.0,
      0.0,
      0.0,
      0.0,
      0.0,
      0.0,
      0.0,
      0.0,
      0.0,
      0.0,
      0.0,
      0.0,
      0.0,
      0.0,
      0.0,
      0.0,
      0.0,
      0.0,
      0.0,
      0.0,
      0.0,
      0.0,
      0.0,
      0.0,
      0.0,
      0.0,
      0.0,
      0.0,
      0.0,
      0.0,
      0.0,
      0.0,
      0.0,
      0.0,
      0.0,
      0.0,
      0.0,
      0.0,
      0.0,
      0.0,
      0.0,
      0.0,
      0.0,
      0.0,
      0.0,
      0.0
    ],
    [],
    [],
    [],
    [
      0.42541322112083435,
      -0.49841463565826416,
      0.4334336519241333,
      0.25866129994392395,
      0.23335760831832886,
      0.03696119040250778,
      0.1091480702161789,
      1.0520468950271606,
      0.599503219127655,
      0.6828495860099792,
      -0.6363321542739868,
      -0.47966471314430237,
      -1.0295157432556152,
      -0.8750563263893127,
      -0.11660850048065186,
      0.9222797751426697,
      -0.7391455769538879,
      0.5396243333816528,
      -0.1534203439950943,
      0.6271331906318665,
      0.8251102566719055,
      -0.003280665259808302,
      0.4169159531593323,
      -0.023078635334968567,
      0.5888624787330627,
      0.33103740215301514,
      -0.39287468791007996,
      0.7379724979400635,
      -0.5742842555046082,
      -0.8398060202598572,
      0.953365683555603,
      0.27037182450294495,
      0.5288949012756348,
      -0.4041363000869751,
      -0.42042508721351624,
      -1.4768242835998535,
      -0.7501153945922852,
      -0.02420605532824993,
      -0.243123859167099,
      1.0454192161560059,
      0.9316163063049316,
      0.48779815435409546,
      -0.08742943406105042,
      -0.9161173701286316,
      -0.759430468082428,
      0.6214070320129395,
      -1.2661503553390503,
      0.37276509404182434,
      0.9275639653205872,
      0.34589654207229614,
      -0.6312894821166992,
      0.7230165004730225,
      1.2257074117660522,
      -1.147121548652649,
      0.02074304409325123,
      0.5994987487792969,
      0.15362705290317535,
      1.0762858390808105,
      1.1580636501312256,
      -0.5585482716560364,
      0.8389783501625061,
      0.44937223196029663,
      0.24701815843582153,
      0.5258211493492126,
      -0.40370234847068787,
      -0.37894847989082336,
      0.852931559085846,
      0.05249515920877457,
      0.844468891620636,
      0.8923379182815552,
      -0.31351396441459656,
      -0.8727148771286011,
      -0.8971622586250305,
      -0.7775865197181702,
      0.15678894519805908,
      1.153856635093689,
      1.0651882886886597,
      0.4500831961631775,
      0.30156224966049194,
      -0.8763582706451416,
      -0.26724615693092346,
      0.6026161313056946,
      -0.8269382119178772,
      -0.923770010471344,
      -0.5736749768257141,
      -0.5491315722465515,
      0.5693245530128479,
      -0.8756867051124573,
      -0.1982678920030594,
      -0.23690813779830933,
      0.9071837663650513,
      -0.5000920295715332,
      0.6482815146446228,
      0.38823699951171875,
      0.5187757611274719,
      -1.4605122804641724,
      0.3740484416484833,
      0.1137758195400238,
      -0.011522652581334114,
      0.1263168752193451,
      -0.5258892178535461,
      -0.3843853175640106,
      0.2651655077934265,
      -0.18774794042110443,
      -1.1010318994522095,
      0.6611360311508179,
      0.2027549147605896,
      0.1852741241455078,
      -0.7476305365562439,
      0.04584832862019539,
      0.6411082148551941,
      -0.9572199583053589,
      -0.423499196767807,
      -0.14155209064483643,
      0.9715294241905212,
      -0.30305716395378113,
      0.18470901250839233,
      0.12257362902164459,
      -0.24215154349803925,
      -0.153558611869812,
      0.2680749297142029,
      0.6987996101379395,
      0.4426519274711609,
      0.13976246118545532,
      0.36699527502059937,
      -0.5028420686721802,
      -0.005438313353806734,
      0.9170387387275696,
      0.7409269213676453,
      -1.1839500665664673,
      0.34755775332450867,
      0.17665719985961914,
      0.6302148699760437,
      0.8672698736190796,
      0.14481773972511292,
      -0.02011631429195404,
      0.5560768842697144,
      -0.4840710461139679,
      -0.4147244989871979,
      0.49161240458488464,
      1.4666831493377686,
      -0.8919777870178223,
      0.24752093851566315,
      -0.4251575469970703,
      -1.18440842628479,
      0.3032302260398865,
      -0.6244147419929504,
      0.491253137588501,
      0.6025652885437012,
      0.023142483085393906,
      -0.2671111822128296,
      -1.0050822496414185,
      -0.39594483375549316,
      0.6403053998947144,
      -0.9697307348251343,
      -0.37946969270706177,
      -0.6865395307540894,
      -0.03518841043114662,
      0.5150694847106934,
      -0.8442479372024536,
      -1.3328741788864136,
      0.8000871539115906,
      0.10673712939023972,
      -0.5994524955749512,
      0.16051188111305237,
      -0.6942623853683472,
      -0.6079208254814148,
      0.8696221113204956,
      -0.22753877937793732,
      0.6933867335319519,
      0.2759070098400116,
      0.10063489526510239,
      -0.3221190869808197,
      0.14174778759479523,
      0.8736451268196106,
      -0.7387729287147522,
      0.3855191171169281,
      -0.8441133499145508,
      -0.6061439514160156,
      -0.08861124515533447,
      -0.4352058172225952,
      -0.6490887403488159,
      -0.4512724280357361,
      -0.6350224614143372,
      0.5475293397903442,
      0.44044598937034607,
      -0.6612198948860168,
      0.8677889108657837,
      -0.5398486256599426,
      0.09085873514413834,
      -0.5841923356056213,
      0.4665452539920807,
      -0.24463221430778503,
      1.2242870330810547,
      0.6383931636810303,
      0.6267608404159546,
      0.06662335991859436,
      -0.11468058079481125,
      -0.20842623710632324,
      0.32883426547050476,
      -0.7875438332557678,
      -0.8916627168655396,
      0.649040162563324,
      0.1520741581916809,
      0.6711332201957703,
      -0.8126974105834961,
      -0.9432588219642639,
      -0.17601458728313446,
      0.5553727149963379,
      -0.39903393387794495,
      -1.037614107131958,
      -0.9428379535675049,
      0.8303282260894775,
      0.5368132591247559,
      -0.23905296623706818,
      0.36707499623298645,
      0.541368305683136,
      0.25084561109542847,
      0.23262840509414673,
      -0.1760847419500351,
      -0.38936543464660645,
      -0.8349871635437012,
      0.7153639793395996,
      0.3928389251232147,
      -0.6551260948181152,
      0.064620241522789,
      0.057705964893102646,
      0.9299035668373108,
      0.08286090940237045,
      -0.3496154546737671,
      -0.8745420575141907,
      -0.30385318398475647,
      0.17665646970272064,
      1.2985631227493286,
      0.10717646032571793,
      -0.6107005476951599,
      -0.1553521305322647,
      0.8584019541740417,
      -0.18605144321918488,
      -0.1449742168188095,
      0.5484213829040527,
      -1.1152139902114868,
      -0.5993565320968628,
      -0.20605328679084778,
      -0.288124680519104,
      -0.5762597322463989,
      -0.22001081705093384,
      0.23034632205963135,
      -0.32630252838134766,
      -0.27437856793403625,
      -0.27497246861457825,
      0.14490845799446106,
      -0.22846339643001556,
      -0.5810818076133728,
      0.44549110531806946,
      0.1448754072189331
    ],
    [
      -0.19059321284294128,
      0.2031867355108261,
      0.9821825623512268,
      0.9889035820960999,
      -0.5261844396591187,
      -0.5214807987213135,
      -0.3139883279800415,
      -1.1490156650543213,
      -1.3151583671569824,
      0.929579496383667,
      -0.6889297366142273,
      0.16755710542201996,
      0.0516386516392231,
      -0.061198726296424866,
      -0.8675180673599243,
      -1.0717042684555054,
      -0.3395809829235077,
      -0.9323276877403259,
      -0.6010862588882446,
      0.20634926855564117,
      -0.6110190749168396,
      -0.17511092126369476,
      -0.5990512371063232,
      -0.03165585920214653,
      0.8607025146484375,
      0.3523018956184387,
      -0.9269113540649414,
      -0.7306016683578491,
      0.34118014574050903,
      0.40497371554374695,
      0.6755356192588806,
      -0.25101926922798157
    ],
    [
      0.42894038558006287,
      3.0078375339508057,
      0.12671706080436707,
      -0.08594387769699097,
      -0.6773850321769714,
      -0.9325470924377441,
      -0.7981634140014648,
      -0.8206287026405334,
      -1.2094491720199585,
      -0.6568256616592407
    ]
  ],
  "weights": [
    [],
    [],
    [],
    [],
    [
      -0.12855249643325806,
      0.003503157990053296,
      0.09284703433513641,
      -0.14511732757091522,
      -0.10876546800136566,
      -0.06858392804861069,
      -0.09235257655382156,
      -0.031050020828843117,
      -0.007809919770807028,
      0.013261782936751842,
      0.08279754966497421,
      0.08319340646266937,
      0.09854135662317276,
      0.11301450431346893,
      -0.12258333712816238,
      0.051932770758867264,
      -0.05444580316543579,
      0.06487800925970078,
      0.08004198968410492,
      0.09949663281440735,
      0.09262179583311081,
      -0.013390040956437588,
      -0.05026810243725777,
      0.006359805818647146,
      0.09904958307743073,
      -0.07773034274578094,
      0.15080676972866058,
      0.11551092565059662,
      0.04544742777943611,
      0.1434173583984375,
      -0.005001557059586048,
      -0.08626637607812881,
      0.06079123914241791,
      -0.06584050506353378,
      -0.09562328457832336,
      0.13445326685905457,
      -0.03188678249716759,
      -0.10575060546398163,
      -0.13148491084575653,
      -0.13345400989055634,
      0.03035835735499859,
      0.06209946051239967,
      0.13189713656902313,
      -0.04540085792541504,
      -0.07625521719455719,
      -0.028152525424957275,
      0.014508220367133617,
      -0.04802696034312248,
      -0.0219228845089674,
      -0.02712850645184517,
      0.1047295406460762,
      -0.13446944952011108,
      0.09585428982973099,
      0.014611661434173584,
      0.12879589200019836,
      -0.027595989406108856,
      -0.11601733416318893,
      0.08518244326114655,
      0.021119769662618637,
      0.14107654988765717,
      -0.09447351098060608,
      0.09840089827775955,
      0.07323859632015228,
      -0.02196122147142887,
      0.11621630936861038,
      0.028548691421747208,
      0.12088432163000107,
      -0.12739458680152893,
      -0.018038049340248108,
      0.00661584734916687,
      -0.0022186676505953074,
      0.0015513180987909436,
      0.022680239751935005,
      0.1046467050909996,
      -0.12727855145931244,
      -0.0609419047832489,
      0.08378858864307404,
      -0.1366785764694214,
      -0.05689948797225952,
      -0.005262151826173067,
      0.0501338392496109,
      -0.13742293417453766,
      -0.06176041066646576,
      0.03387945890426636,
      -0.05205797404050827,
      -0.029174381867051125,
      0.12122496962547302,
      0.1677999645471573,
      0.021793005988001823,
      -0.034933000802993774,
      0.07491809129714966,
      0.04195072874426842,
      -0.016996903344988823,
      0.046195004135370255,
      0.012846953235566616,
      0.013834817335009575,
      -1.6200405298150145E-5,
      0.004504880402237177,
      0.16054998338222504,
      0.12099450826644897,
      -0.12013836205005646,
      -0.08459724485874176,
      0.09506826847791672,
      -0.012151864357292652,
      -0.0394364558160305,
      0.009897579438984394,
      0.15196143090724945,
      -0.1515258550643921,
      0.06005193293094635,
      0.13664737343788147,
      0.055031027644872665,
      0.08822538703680038,
      -0.02533174864947796,
      -0.04430226981639862,
      -0.11517447978258133,
      -0.08759571611881256,
      0.05971556529402733,
      0.018177861347794533,
      0.10071929544210434,
      -0.06822914630174637,
      0.04401768371462822,
      0.04680338874459267,
      0.0010575172491371632,
      0.11547978222370148,
      -0.10467234998941422,
      0.04635937511920929,
      0.09415527433156967,
      0.07473037391901016,
      0.05473873019218445,
      -0.02734081819653511,
      -0.023959198966622353,
      0.12715831398963928,
      -0.021552428603172302,
      -0.10545948147773743,
      0.002560513559728861,
      -0.06134366989135742,
      0.013136639259755611,
      -0.0940665751695633,
      -0.06198815256357193,
      -0.01142567303031683,
      -0.08432389795780182,
      -0.054578881710767746,
      0.11921695619821548,
      0.03180765360593796,
      -0.11593438684940338,
      -0.03386355936527252,
      0.03709956631064415,
      -0.013897651806473732,
      -0.07512658089399338,
      0.05098891258239746,
      -0.02669169008731842,
      0.06893603503704071,
      -0.0745331421494484,
      -0.1058322936296463,
      0.10487445443868637,
      0.06016969308257103,
      -0.03806426003575325,
      -0.02230134606361389,
      -0.11149793863296509,
      -0.11091270297765732,
      0.08153173327445984,
      -0.0726652517914772,
      0.028571106493473053,
      -0.06108289957046509,
      -0.0455884113907814,
      -0.03385602682828903,
      -0.025567343458533287,
      7.01474433299154E-4,
      -0.11398467421531677,
      -0.053064215928316116,
      -0.061514075845479965,
      0.08428014069795609,
      0.10970984399318695,
      0.06714586168527603,
      -0.03734612837433815,
      -0.04751496762037277,
      0.07294066995382309,
      0.10625237971544266,
      -0.13777557015419006,
      0.10785308480262756,
      0.062248311936855316,
      0.06773726642131805,
      0.03864876553416252,
      0.09506533294916153,
      -0.13207696378231049,
      -0.05599565431475639,
      -0.03078250028192997,
      -0.12104536592960358,
      0.034152403473854065,
      -0.04290645569562912,
      0.10306570678949356,
      -0.11627279967069626,
      0.13661490380764008,
      -0.10498582571744919,
      0.042947858572006226,
      0.044387973845005035,
      -0.04992327839136124,
      -0.12644223868846893,
      0.023184753954410553,
      -0.012722075916826725,
      0.06257089972496033,
      2.6896264171227813E-4,
      -0.12301432341337204,
      -0.14500974118709564,
      0.053315937519073486,
      0.1273408830165863,
      0.06972067803144455,
      -0.13184402883052826,
      -0.07158239185810089,
      0.0026280912570655346,
      -0.023940609768033028,
      0.09704197198152542,
      0.0933123230934143,
      -0.04385453835129738,
      -0.0604870468378067,
      0.0758492648601532,
      0.17266665399074554,
      -0.06445764750242233,
      -0.0779675766825676,
      0.06382343173027039,
      -0.09196898341178894,
      0.10456027090549469,
      0.017234768718481064,
      0.07167739421129227,
      -0.13573476672172546,
      0.09864000976085663,
      0.07433441281318665,
      0.034721750766038895,
      -0.12351576238870621,
      0.06949195265769958,
      -0.047707296907901764,
      0.15529440343379974,
      -0.059422191232442856,
      0.09509160369634628,
      -0.004738207906484604,
      0.13654331862926483,
      -0.11250685155391693,
      -0.02848668023943901,
      -0.06817623227834702,
      -0.026091597974300385,
      -0.01129109412431717,
      0.09430326521396637,
      -0.03128660097718239,
      -0.06517862528562546,
      -0.021711090579628944,
      7.100359071046114E-4,
      -0.015618335455656052,
      -0.003441954031586647,
      0.07023676484823227,
      -0.0469488762319088,
      0.10383788496255875,
      0.06310869008302689,
      -0.05573204159736633,
      0.154971182346344,
      0.048379525542259216,
      -0.04725107178092003,
      -0.03527694195508957,
      -0.12793365120887756,
      0.06971802562475204,
      -0.03536917269229889,
      0.15206395089626312,
      -0.11255022883415222,
      0.025917235761880875,
      0.13480311632156372,
      -0.056895505636930466,
      -0.023578012362122536,
      0.07071255892515182,
      0.003318539820611477,
      0.01984715461730957,
      -0.021231764927506447,
      -0.0074884407222270966,
      -0.07612047344446182,
      -0.11433220654726028,
      0.016558093950152397,
      -0.09869994968175888,
      -0.1092437356710434,
      0.10888916999101639,
      0.11474400013685226,
      0.016027556732296944,
      -0.13166648149490356,
      0.1644871085882187,
      0.03781455010175705,
      0.036770422011613846,
      0.06759172677993774,
      0.0544547475874424,
      0.004679195117205381,
      0.0822552889585495,
      0.14911042153835297,
      0.02665657177567482,
      0.010412625037133694,
      0.1659286916255951,
      0.04248085990548134,
      0.09945330768823624,
      -0.10849171131849289,
      -0.02508995309472084,
      -0.1358887404203415,
      -0.1139046847820282,
      0.01538772787898779,
      0.04775063320994377,
      -0.10795708745718002,
      0.0904204472899437,
      0.0944736897945404,
      -0.01728791370987892,
      -0.07843150198459625,
      -0.0686589851975441,
      -0.03491724655032158,
      0.06997168064117432,
      0.040992993861436844,
      -0.013216166757047176,
      0.051810506731271744,
      0.02157684415578842,
      0.044324617832899094,
      -0.05104449763894081,
      -0.07910338789224625,
      -0.11509008705615997,
      0.1320558786392212,
      -0.012380871921777725,
      0.11940455436706543,
      -0.020310478284955025,
      0.06757241487503052,
      0.13945135474205017,
      -0.0730988159775734,
      -0.07878952473402023,
      -0.0771293193101883,
      0.1321350485086441,
      0.006027804221957922,
      0.015682950615882874,
      0.08215275406837463,
      0.09453540295362473,
      -0.020676858723163605,
      0.0116190817207098,
      0.08044099807739258,
      -0.1397605985403061,
      -0.0713597983121872,
      -6.028099451214075E-4,
      -0.052157800644636154,
      0.10579186677932739,
      0.017489882186055183,
      0.13401399552822113,
      -0.06861500442028046,
      -0.12277373671531677,
      -0.051245853304862976,
      -0.033798590302467346,
      -0.12840618193149567,
      -0.06663435697555542,
      -0.11531618982553482,
      0.041930753737688065,
      -0.108017198741436,
      0.027531685307621956,
      -0.09036306291818619,
      0.11304870247840881,
      -0.006228877697139978,
      -0.156538724899292,
      -0.1312713325023651,
      -0.09985361993312836,
      -0.0664493665099144,
      0.07781214267015457,
      -0.00884341262280941,
      -0.11225741356611252,
      -0.029260797426104546,
      -0.11180740594863892,
      -0.14133064448833466,
      -0.04843186214566231,
      -0.06356745958328247,
      -0.13163410127162933,
      0.08740770071744919,
      0.06802286952733994,
      -0.08783911913633347,
      -0.0486336313188076,
      -0.025577567517757416,
      -0.12258951365947723,
      0.0024113457184284925,
      -0.022025562822818756,
      0.09206372499465942,
      -0.0875096321105957,
      -0.09073368459939957,
      0.020687462761998177,
      -0.11723586916923523,
      -0.09946893900632858,
      0.09989424049854279,
      -0.09877410531044006,
      -0.13794638216495514,
      0.13110914826393127,
      -0.10555857419967651,
      -0.02870745025575161,
      -0.1348528116941452,
      0.08162984997034073,
      0.051424361765384674,
      -0.051022566854953766,
      -0.09193936735391617,
      0.09195955842733383,
      0.06628165394067764,
      -0.050723060965538025,
      -0.02563408948481083,
      0.1316690891981125,
      -0.03471833094954491,
      -0.04549769312143326,
      0.018291372805833817,
      -0.03725380450487137,
      0.061092033982276917,
      -0.10986383259296417,
      -0.06098788604140282,
      0.12655431032180786,
      0.03624998405575752,
      -0.05780201777815819,
      0.013831273652613163,
      0.05626558139920235,
      -0.09632277488708496,
      0.11332498490810394,
      -0.0651698037981987,
      -7.188348099589348E-4,
      0.07072082906961441,
      -0.05752274766564369,
      -0.1425665020942688,
      0.010820994153618813,
      0.08383123576641083,
      0.08146048337221146,
      -0.11670926213264465,
      -0.01626056618988514,
      0.11146291345357895,
      -0.068263478577137,
      -0.025395961478352547,
      0.08154767751693726,
      0.05952269956469536,
      0.09076419472694397,
      -0.01952545903623104,
      0.09907180815935135,
      0.0029015508480370045,
      0.11587322503328323,
      0.12075845152139664,
      -0.05267738550901413,
      0.10835476964712143,
      0.11417234688997269,
      0.011494481936097145,
      0.05242753028869629,
      -0.01597428135573864,
      0.08841618150472641,
      -0.06506458669900894,
      0.02311219461262226,
      0.03391812741756439,
      -0.023516912013292313,
      -0.013223513960838318,
      0.08490269631147385,
      0.04599730297923088,
      0.10054732859134674,
      0.06095161288976669,
      -0.03846113011240959,
      -0.10844890773296356,
      -0.11403439939022064,
      -0.013586844317615032,
      -0.006315558683127165,
      0.07525196671485901,
      -0.1201610118150711,
      0.12307450920343399,
      -0.016095289960503578,
      -0.0681338682770729,
      -0.009824421256780624,
      0.004493578337132931,
      0.08124862611293793,
      -0.08936316519975662,
      -0.04484812170267105,
      -0.08366857469081879,
      -0.13635136187076569,
      0.04627133533358574,
      -0.08980069309473038,
      -0.12390632182359695,
      0.0025231782346963882,
      -0.028693750500679016,
      0.03390669450163841,
      -0.09224105626344681,
      -0.06718695908784866,
      -0.044710852205753326,
      0.1057092696428299,
      0.14439381659030914,
      -0.02603086642920971,
      0.08000289648771286,
      0.16457873582839966,
      -0.05595958232879639,
      0.17833073437213898,
      0.04312705621123314,
      -0.03230023756623268,
      -0.020330851897597313,
      0.15427781641483307,
      0.14056991040706635,
      -0.03607247397303581,
      -0.10544231534004211,
      0.003293535904958844,
      0.03692423179745674,
      -0.11480877548456192,
      0.01317098829895258,
      0.07100431621074677,
      -0.03797588497400284,
      0.060731202363967896,
      -0.10347441583871841,
      0.04857299476861954,
      -0.041899360716342926,
      0.11835648864507675,
      0.021508188918232918,
      -0.05160091817378998,
      -0.00579437892884016,
      -0.003321613883599639,
      -0.12331417948007584,
      0.09651222079992294,
      0.136912003159523,
      -0.04675082117319107,
      0.12373614311218262,
      0.031158290803432465,
      0.05690721794962883,
      0.06181754916906357,
      -0.03132667765021324,
      -0.10575372725725174,
      0.016376713290810585,
      0.08270175755023956,
      -0.12365416437387466,
      0.12115658819675446,
      -0.1161758229136467,
      -0.12731924653053284,
      0.113320492208004,
      -0.11494019627571106,
      0.07268394529819489,
      -0.08048427850008011,
      -0.05656080320477486,
      0.06584742665290833,
      -0.0896817147731781,
      0.027323182672262192,
      0.05761062353849411,
      -0.055395957082509995,
      0.12260502576828003,
      0.1399037390947342,
      -0.0681304931640625,
      0.09694630652666092,
      0.008105585351586342,
      -0.10762535780668259,
      -0.06832699477672577,
      -0.07711129635572433,
      -0.05959147587418556,
      -0.08407288789749146,
      -0.12055955827236176,
      0.07286196947097778,
      -0.016591688618063927,
      0.08673365414142609,
      0.0070464108139276505,
      0.0773102194070816,
      0.15202012658119202,
      0.04881707951426506,
      -0.05405544862151146,
      0.17222724854946136,
      0.04701029136776924,
      -0.015561230480670929,
      0.04155658558011055,
      -0.016083568334579468,
      0.04744835942983627,
      -0.11780306696891785,
      -0.08956136554479599,
      0.12576578557491302,
      0.08858557790517807,
      2.9443256789818406E-4,
      0.08451133966445923,
      0.010854367166757584,
      -0.1456167995929718,
      0.0521666444838047,
      0.034154608845710754,
      -0.07123871892690659,
      0.013007765635848045,
      0.11600875854492188,
      0.023434750735759735,
      -0.14008735120296478,
      0.03770624101161957,
      -0.07757186889648438,
      0.11359532177448273,
      0.038149941712617874,
      -0.09689034521579742,
      -0.03906569629907608,
      -0.01250175666064024,
      -0.0674232766032219,
      -0.05136898159980774,
      0.014307614415884018,
      0.11503060162067413,
      -0.008857754059135914,
      -0.06536930054426193,
      -0.04800380393862724,
      -0.04294642060995102,
      0.13079091906547546,
      0.004016223829239607,
      0.07019411027431488,
      -0.013892105780541897,
      -0.01558870729058981,
      -0.06617262214422226,
      -0.016802459955215454,
      0.02164614386856556,
      0.036888737231492996,
      0.0788952186703682,
      0.1682933121919632,
      -0.12581872940063477,
      -0.016557786613702774,
      -0.06653551757335663,
      -0.014956542290747166,
      -0.12961441278457642,
      0.1202070415019989,
      0.09272070974111557,
      -0.04177778214216232,
      0.015677068382501602,
      -0.12779834866523743,
      0.024928612634539604,
      -0.07189153879880905,
      0.05019105225801468,
      -0.05606061965227127,
      -0.011319082230329514,
      0.021269232034683228,
      -0.014401326887309551,
      -0.11065537482500076,
      -0.02604925073683262,
      -0.03415783494710922,
      -0.13505229353904724,
      0.016756631433963776,
      -0.07873059809207916,
      0.03513890504837036,
      0.12249433994293213,
      0.10611724108457565,
      -0.13163423538208008,
      -0.059840913861989975,
      -0.015990760177373886,
      -0.06695029884576797,
      -0.02880673296749592,
      -0.050742436200380325,
      -0.13840332627296448,
      -0.06436385959386826,
      -0.06810156255960464,
      -0.05898679420351982,
      0.06662283837795258,
      0.0834282860159874,
      0.09965302795171738,
      -0.03330877050757408,
      0.11711563915014267,
      0.07370131462812424,
      -0.03738527372479439,
      0.03653942793607712,
      0.016695858910679817,
      0.09810886532068253,
      0.07562270015478134,
      -0.1428965926170349,
      0.044585127383470535,
      -0.11005754768848419,
      -0.11600958555936813,
      0.06011500209569931,
      -0.0461854487657547,
      0.008657765574753284,
      -0.053993482142686844,
      0.11920090019702911,
      -0.11160661280155182,
      -0.09080461412668228,
      0.027005894109606743,
      0.060398757457733154,
      -0.107371985912323,
      -0.13273240625858307,
      -0.06080945208668709,
      -0.10296466201543808,
      -0.008542929776012897,
      -0.10438314825296402,
      0.13872972130775452,
      -0.13448314368724823,
      -0.01514960266649723,
      -0.11720679700374603,
      -0.043809372931718826,
      0.06773556023836136,
      0.02977871708571911,
      -0.059284985065460205,
      -0.10354995727539062,
      0.11891181766986847,
      0.1241304948925972,
      0.09869780391454697,
      0.1744960993528366,
      -0.0908442959189415,
      -0.07399081438779831,
      -0.0311881210654974,
      -0.12248176336288452,
      -0.12174662202596664,
      -0.06769691407680511,
      -0.04998156800866127,
      0.029676051810383797,
      0.08326014131307602,
      -0.07619491219520569,
      -0.044805578887462616,
      0.06807243078947067,
      -0.1233024075627327,
      -0.12091432511806488,
      -0.14682023227214813,
      0.10561692714691162,
      0.06822393089532852,
      0.0440097376704216,
      -0.07936146855354309,
      -0.01627674140036106,
      -0.12865795195102692,
      0.08413185179233551,
      -0.11632686108350754,
      -0.04513469710946083,
      -0.04376808553934097,
      -0.1349177211523056,
      0.13935807347297668,
      -0.08931446075439453,
      0.09449354559183121,
      0.0353594534099102,
      0.1677711457014084,
      0.0050840675830841064,
      0.14873352646827698,
      0.07851193845272064,
      -0.012843461707234383,
      -0.0559525340795517,
      0.034585513174533844,
      0.03435451164841652,
      -0.1036798506975174,
      -0.0796433538198471,
      0.02900546044111252,
      0.1507449746131897,
      -0.05311550199985504,
      0.04118461534380913,
      0.08207154273986816,
      -0.011269444599747658,
      0.0889507532119751,
      -0.08733901381492615,
      0.07174138724803925,
      -0.022060811519622803,
      0.12729531526565552,
      -0.004253766033798456,
      -0.060442499816417694,
      0.08063481003046036,
      0.03929939493536949,
      -0.06973642855882645,
      0.013497527688741684,
      -0.042961280792951584,
      0.05739149451255798,
      0.028116140514612198,
      0.04193737357854843,
      0.16673703491687775,
      0.003991350531578064,
      0.08137266337871552,
      -0.08817922323942184,
      0.06670824438333511,
      -0.10388284176588058,
      -0.09422802180051804,
      -0.0016239830292761326,
      0.009028186090290546,
      -0.06608981639146805,
      -0.030880464240908623,
      0.10887521505355835,
      0.01993851363658905,
      -0.12098100036382675,
      -0.11937154829502106,
      -0.0654296875,
      -0.08957087248563766,
      -0.07772932946681976,
      -0.11978985369205475,
      0.11841876804828644,
      0.10579539090394974,
      0.16630634665489197,
      0.1267452836036682,
      -0.10122448951005936,
      0.07791648060083389,
      0.0375901497900486,
      0.02087838016450405,
      0.1028791293501854,
      -0.11165350675582886,
      -0.009386317804455757,
      0.09062983840703964,
      0.08884567022323608,
      0.10594824701547623,
      0.007796178571879864,
      0.09004110842943192,
      -0.09197397530078888,
      -0.1089550107717514,
      -0.050276510417461395,
      0.0635068416595459,
      0.0029558856040239334,
      0.06889494508504868,
      -0.09605660289525986,
      -0.06443982571363449,
      0.020266231149435043,
      0.05758591741323471,
      0.06791024655103683,
      0.04130212962627411,
      -0.02746369130909443,
      0.09036362916231155,
      -0.1204192116856575,
      0.05417000502347946,
      0.15596047043800354,
      0.07136273384094238,
      -0.031112367287278175,
      -0.023209793493151665,
      0.12643881142139435,
      0.09403744339942932,
      0.06674854457378387,
      -0.10679751634597778,
      -0.16215813159942627,
      -0.0012590064434334636,
      -0.056819815188646317,
      0.03816565126180649,
      -0.0972440093755722,
      0.13626857101917267,
      0.00878980290144682,
      0.06857524067163467,
      0.17170009016990662,
      0.05247475579380989,
      0.03398100659251213,
      0.002821192145347595,
      -0.04576918110251427,
      0.05733137205243111,
      0.038530442863702774,
      0.14151634275913239,
      0.0556061789393425,
      -0.13184519112110138,
      -0.03474598750472069,
      0.06823935359716415,
      -0.07810987532138824,
      -0.05086205154657364,
      0.05029378831386566,
      -0.12847177684307098,
      -0.07523243129253387,
      -0.0070802802219986916,
      0.10446860641241074,
      -0.016786839812994003,
      -0.1418783813714981,
      0.10174302011728287,
      -0.11520033329725266,
      0.031973402947187424,
      0.18405702710151672,
      -0.049344971776008606,
      -0.10026213526725769,
      0.01758325658738613,
      0.02555663511157036,
      -0.1384788453578949,
      0.12171326577663422,
      0.08536747843027115,
      0.030812742188572884,
      0.020068340003490448,
      -0.01326314639300108,
      -0.06625933945178986,
      0.1179792508482933,
      -0.017379993572831154,
      0.0843501091003418,
      -0.023345306515693665,
      3.878472780343145E-4,
      -0.1773311048746109,
      0.0799986720085144,
      0.1315179020166397,
      -0.005756982136517763,
      -0.11009448766708374,
      -0.03403707593679428,
      -0.03678356111049652,
      -0.09009203314781189,
      -0.002816564403474331,
      0.15123622119426727,
      0.06855758279561996,
      -0.0673183873295784,
      -0.06460477411746979,
      0.014452368021011353,
      0.07075586169958115,
      -0.07627229392528534,
      -0.03252725303173065,
      -0.06692937761545181,
      -0.06244536116719246,
      0.07884170860052109,
      -0.1356600672006607,
      -0.0454762801527977,
      -0.10881075263023376,
      -0.08036255091428757,
      0.061489906162023544,
      -0.004629085771739483,
      -0.04026063531637192,
      -0.1877410113811493,
      -0.03009706176817417,
      0.07134032994508743,
      0.14710697531700134,
      -0.11849185079336166,
      -0.053458455950021744,
      -0.01306917704641819,
      0.09773695468902588,
      -0.09922859817743301,
      0.09126432985067368,
      -0.10497795790433884,
      -0.024255987256765366,
      0.12227953970432281,
      0.0015124086057767272,
      0.19826409220695496,
      0.17376099526882172,
      -0.05499891936779022,
      -0.06139480695128441,
      -0.06096811220049858,
      -0.06870653480291367,
      0.15346968173980713,
      -0.09894534945487976,
      0.015624345280230045,
      0.0251906830817461,
      0.07981514930725098,
      0.03072955831885338,
      0.015365415252745152,
      -0.14014190435409546,
      -0.08833222836256027,
      0.0165928453207016,
      0.05978686362504959,
      0.060587186366319656,
      0.16098204255104065,
      -0.08622968196868896,
      0.07047530263662338,
      -0.04807726666331291,
      0.004058679100126028,
      0.1416778713464737,
      -0.1186540424823761,
      -0.07153365761041641,
      -0.07016163319349289,
      -0.10460267961025238,
      -0.05627840384840965,
      0.12264297902584076,
      -0.031019965186715126,
      -0.05103272572159767,
      -0.12417560070753098,
      0.024048537015914917,
      -0.0026652237866073847,
      0.12979024648666382,
      0.0170112457126379,
      0.05812889337539673,
      0.06587617844343185,
      -0.07681314647197723,
      -0.0841115191578865,
      0.06422172486782074,
      0.08515018224716187,
      0.01960843801498413,
      -0.06078426539897919,
      -0.18381832540035248,
      -0.07327169924974442,
      0.1107000783085823,
      0.01453141774982214,
      0.09719391167163849,
      -0.13301599025726318,
      -0.05032843351364136,
      -0.06360521167516708,
      -0.1401839405298233,
      0.07775954157114029,
      0.009352282620966434,
      0.013845186680555344,
      -0.1429334282875061,
      0.0842091515660286,
      0.011615090072154999,
      -0.1392233818769455,
      -0.010685568675398827,
      -0.05528898164629936,
      0.05990505963563919,
      -0.17404918372631073,
      0.031714510172605515,
      0.06760024279356003,
      -0.024391617625951767,
      0.02695293352007866,
      -0.1282452940940857,
      0.05237125605344772,
      -0.08700035512447357,
      0.0736575722694397,
      0.15839777886867523,
      -0.001573657849803567,
      -0.15547260642051697,
      -0.006871398538351059,
      0.09212242811918259,
      -0.14468131959438324,
      0.0010622177505865693,
      0.00671298848465085,
      0.05382266640663147,
      0.050665371119976044,
      0.06291551887989044,
      0.10162457078695297,
      1.6189442249014974E-4,
      0.11536530405282974,
      0.06887690722942352,
      0.11787902563810349,
      -0.05831504985690117,
      -0.02190040424466133,
      0.09557895362377167,
      -0.08833510428667068,
      -0.04109831154346466,
      0.09766333550214767,
      0.11764399707317352,
      0.03995039686560631,
      -0.050795409828424454,
      -0.14161649346351624,
      0.046137530356645584,
      -0.12672686576843262,
      -0.13179893791675568,
      0.04299887269735336,
      0.07359901815652847,
      0.10609365254640579,
      0.12805910408496857,
      -0.03583037480711937,
      0.08581402897834778,
      0.0666671022772789,
      -0.10725108534097672,
      -0.07691185921430588,
      -0.018263956531882286,
      -0.01408520806580782,
      0.057294778525829315,
      -0.05985270068049431,
      -0.08947042375802994,
      0.06996851414442062,
      0.1342645287513733,
      -0.08431073278188705,
      -0.13168473541736603,
      -0.0663488358259201,
      0.0568644143640995,
      0.1439930498600006,
      0.014945654198527336,
      -0.049868423491716385,
      0.11715995520353317,
      0.06374292820692062,
      -0.006725738290697336,
      0.13827544450759888,
      -0.003653845749795437,
      0.07303373515605927,
      0.03074854239821434,
      0.0574491024017334,
      -0.04838377237319946,
      0.09748659282922745,
      -0.0228024460375309,
      -0.13675445318222046,
      0.09551384299993515,
      -0.03129418566823006,
      0.038713663816452026,
      -0.12636078894138336,
      -0.049175042659044266,
      -0.00409060250967741,
      -0.0811004713177681,
      0.0982891321182251,
      -0.0357447974383831,
      -0.1453046202659607,
      -0.0708889290690422,
      -0.014968045055866241,
      -0.005497707519680262,
      -0.0790490061044693,
      0.005707434844225645,
      0.08493054658174515,
      0.03950332850217819,
      -0.1276584416627884,
      0.02578222006559372,
      -0.06725907325744629,
      -0.11091740429401398,
      -0.058137666434049606,
      0.027373025193810463,
      0.1048331931233406,
      -0.09915594011545181,
      0.026458492502570152,
      0.03139235079288483,
      -0.12348375469446182,
      -0.08410954475402832,
      0.11990831792354584,
      -0.08676525950431824,
      0.1044059544801712,
      0.02036312408745289,
      0.11409198492765427,
      0.06904154270887375,
      -0.10205122828483582,
      -0.03283622860908508,
      -0.08082540333271027,
      -0.14213703572750092,
      0.122991643846035,
      0.10168642550706863,
      -0.08580915629863739,
      -0.05143706500530243,
      -0.0629497691988945,
      0.09988188743591309,
      -0.026317307725548744,
      -0.031836193054914474,
      0.10314828902482986,
      0.06780882179737091,
      0.13737845420837402,
      0.03331804275512695,
      -0.0072853234596550465,
      -0.08449198305606842,
      -0.09471184760332108,
      0.003228395478799939,
      -0.06232290714979172,
      -0.12144748866558075,
      -0.010517368093132973,
      0.0601043701171875,
      0.04756198823451996,
      -0.09495318681001663,
      0.06448069214820862,
      -0.07039020210504532,
      -0.051676541566848755,
      -0.08705911785364151,
      -0.09520968794822693,
      -0.0906793624162674,
      0.1061159297823906,
      -0.05755800008773804,
      -0.05500626936554909,
      0.08703263849020004,
      0.0705760270357132,
      0.003194359363988042,
      -0.04218732565641403,
      0.11480933427810669,
      0.11383767426013947,
      0.008943910710513592,
      0.058696895837783813,
      -0.15150779485702515,
      -0.015416188165545464,
      0.04137691110372543,
      -0.13995936512947083,
      -0.10785962641239166,
      -0.10481676459312439,
      0.10881209373474121,
      0.09426214545965195,
      -0.11125732213258743,
      0.06761197000741959,
      -0.02402590401470661,
      0.09912513196468353,
      0.10059917718172073,
      -0.08641581982374191,
      -0.03853219375014305,
      0.15161573886871338,
      0.0937904641032219,
      -0.07944938540458679,
      -0.043274082243442535,
      0.014425670728087425,
      0.1416398584842682,
      0.018875418230891228,
      0.06153829023241997,
      -0.13973140716552734,
      -0.01972532458603382,
      -0.026321474462747574,
      -0.08409032225608826,
      -0.11422210186719894,
      0.056418806314468384,
      0.0061029233038425446,
      0.12451542168855667,
      -0.023262135684490204,
      -0.10452625155448914,
      -0.002818531123921275,
      0.09232021123170853,
      0.1092381700873375,
      -0.11873405426740646,
      0.1221303716301918,
      -0.027482280507683754,
      0.015334999188780785,
      -0.0549352765083313,
      0.07713402807712555,
      0.09026147425174713,
      -0.07197616994380951,
      0.0023820889182388783,
      0.02256295457482338,
      0.01570982299745083,
      -0.030927246436476707,
      -0.05305122584104538,
      0.04860487952828407,
      -0.11307638138532639,
      -0.06289840489625931,
      -0.11976830661296844,
      -0.0691278874874115,
      0.13220489025115967,
      -0.05372411757707596,
      0.12333066761493683,
      0.11606442183256149,
      0.10255993902683258,
      -0.10909932106733322,
      0.07303009927272797,
      0.0892738550901413,
      -0.04720272123813629,
      -0.016721876338124275,
      -0.044891681522130966,
      -0.140358105301857,
      0.10422869026660919,
      -0.06148288771510124,
      0.023992082104086876,
      0.08836917579174042,
      -0.10783026367425919,
      -0.12422768771648407,
      0.04700320586562157,
      -0.010819701477885246,
      -0.12090758234262466,
      -0.08562665432691574,
      -0.062394849956035614,
      -0.015727421268820763,
      -0.12187658995389938,
      0.11538385599851608,
      -0.07071243971586227,
      -0.02261918969452381,
      0.0032919738441705704,
      0.11938315629959106,
      0.06146560609340668,
      0.1005057841539383,
      -0.12036073207855225,
      0.13348901271820068,
      -0.05947555601596832,
      0.05208168178796768,
      0.003170212497934699,
      0.0837697982788086,
      -0.09227991104125977,
      0.07084915041923523,
      0.02178264781832695,
      0.0349736213684082,
      0.14318883419036865,
      0.04497683420777321,
      -0.12023426592350006,
      -0.0875893235206604,
      0.0911269560456276,
      -0.11145751178264618,
      -0.06118486076593399,
      0.08491534739732742,
      -0.1219072937965393,
      -0.007657693233340979,
      0.10884422063827515,
      0.08605696260929108,
      -0.07413571327924728,
      0.04982315003871918,
      -0.06618380546569824,
      -0.08389679342508316,
      0.0471249483525753,
      7.847050437703729E-5,
      0.09084104746580124,
      -0.07845495641231537,
      -0.0683080181479454,
      -0.05320471152663231,
      -0.09421522915363312,
      0.08581088483333588,
      -0.032389648258686066,
      0.08157476782798767,
      0.029225565493106842,
      -0.019515186548233032,
      0.10915645956993103,
      0.004839923698455095,
      0.12757538259029388,
      0.049430787563323975,
      -0.008949099108576775,
      0.09695114195346832,
      -0.08220618963241577,
      0.09446008503437042,
      -0.03179438039660454,
      0.12920619547367096,
      -0.09600522369146347,
      -0.06967883557081223,
      0.027278251945972443,
      0.024441851302981377,
      -0.04409250617027283,
      0.01898089237511158,
      -0.10273970663547516,
      0.02531544119119644,
      0.11616433411836624,
      0.12372912466526031,
      0.09897682070732117,
      -0.04074905440211296,
      -0.11810854822397232,
      -0.08090315759181976,
      0.07454021275043488,
      -0.11022228747606277,
      -0.02445562183856964,
      0.12668965756893158,
      -0.12655483186244965,
      -0.06147770583629608,
      0.0802956223487854,
      0.09978014975786209,
      -0.10460186004638672,
      -0.14044615626335144,
      -0.032537709921598434,
      0.06545566022396088,
      0.03484643995761871,
      -0.04276126250624657,
      -0.046452928334474564,
      -0.13310079276561737,
      0.06341640651226044,
      0.08514046669006348,
      -0.11515747755765915,
      0.038351986557245255,
      -0.04153228551149368,
      0.005961504764854908,
      0.0768997073173523,
      -0.0077170878648757935,
      -0.15219680964946747,
      0.05227431282401085,
      -0.0750475749373436,
      0.16903352737426758,
      0.102737195789814,
      0.06770998239517212,
      -0.047428566962480545,
      -0.1157684251666069,
      -0.02528495527803898,
      0.14292137324810028,
      -0.11357442289590836,
      -0.08967599272727966,
      -0.0058013666421175,
      0.07498188316822052,
      0.04219182953238487,
      -0.09561169147491455,
      0.08016642928123474,
      0.02974974550306797,
      -0.13993419706821442,
      -0.12803232669830322,
      0.1412009447813034,
      -0.13352684676647186,
      -0.08572912216186523,
      0.025892572477459908,
      0.1063348725438118,
      -0.020365679636597633,
      -0.06025846675038338,
      -0.033945873379707336,
      -0.03163925185799599,
      0.11498302966356277,
      -0.0525653250515461,
      -0.08530942350625992,
      0.06924715638160706,
      0.009381800889968872,
      0.07671266049146652,
      0.03638487681746483,
      -0.10116013139486313,
      9.524219203740358E-4,
      -0.1359018087387085,
      -0.12012047320604324,
      0.03481270745396614,
      0.07216782867908478,
      0.0928809642791748,
      0.07456403970718384,
      -0.09164454787969589,
      -0.08203282207250595,
      -0.009257066994905472,
      0.133972629904747,
      0.042080000042915344,
      0.04756962135434151,
      0.0430353619158268,
      0.07280831038951874,
      -0.06695257872343063,
      -0.09506550431251526,
      0.018647005781531334,
      -0.14780865609645844,
      0.026570148766040802,
      0.09652175009250641,
      -0.0602719783782959,
      0.04563803970813751,
      0.06659352034330368,
      0.2008693367242813,
      0.03968743979930878,
      0.02529950812458992,
      0.07008335739374161,
      -0.09578417241573334,
      0.09023915976285934,
      -0.00918646715581417,
      0.0735217034816742,
      -0.11310533434152603,
      -0.03722522780299187,
      -0.07512994855642319,
      0.09855993092060089,
      0.09229841083288193,
      -0.06531182676553726,
      0.09018335491418839,
      -0.07279054075479507,
      -0.10152223706245422,
      -0.009907017461955547,
      0.047571852803230286,
      -0.0865747481584549,
      -0.036734238266944885,
      0.09922240674495697,
      -0.09289155900478363,
      -0.15059946477413177,
      -0.019011707976460457,
      0.13486212491989136,
      -0.12369253486394882,
      0.03588414937257767,
      -0.0021792103070765734,
      -0.11648359894752502,
      -0.12906885147094727,
      0.045618247240781784,
      0.06420018523931503,
      -0.018934007734060287,
      -0.003362943883985281,
      -0.04953179508447647,
      0.02844810299575329,
      -0.03805144876241684,
      -0.005742110311985016,
      -0.0627114325761795,
      -0.014498312957584858,
      -0.03994773328304291,
      -0.05683691054582596,
      -0.08024130016565323,
      0.036648087203502655,
      0.05689195170998573,
      -0.057336561381816864,
      -0.1026342362165451,
      -0.05430984869599342,
      -0.05462155118584633,
      0.23053129017353058,
      -0.024463370442390442,
      -0.0976320207118988,
      -0.03577713668346405,
      -0.05059385299682617,
      -0.0965837761759758,
      0.08636880666017532,
      0.14476636052131653,
      -0.04259132221341133,
      0.06508676707744598,
      0.044440802186727524,
      0.02501390315592289,
      -0.06917198747396469,
      0.0262727290391922,
      0.13778626918792725,
      0.038076601922512054,
      0.08887244760990143,
      -0.06560441106557846,
      -0.05007031932473183,
      -0.14005716145038605,
      -0.12539340555667877,
      -0.06373748183250427,
      -0.031151795759797096,
      -0.13291603326797485,
      -0.019749581813812256,
      -0.04539210721850395,
      0.14353369176387787,
      0.06497222185134888,
      0.04542676359415054,
      0.0499541237950325,
      -0.07718124240636826,
      -0.04843633994460106,
      -0.08160228282213211,
      0.027637619525194168,
      0.033626798540353775,
      -0.07308293133974075,
      -0.05638665333390236,
      0.16433535516262054,
      -0.07845444977283478,
      0.12179230898618698,
      -0.03156222775578499,
      -0.012376203201711178,
      -0.13794293999671936,
      0.08492888510227203,
      0.16606275737285614,
      0.02613750472664833,
      0.05412350222468376,
      0.15520599484443665,
      0.03480899706482887,
      0.06478936970233917,
      0.06554309278726578,
      -0.13515610992908478,
      0.0916563868522644,
      -0.01795421727001667,
      0.10056453943252563,
      0.07578594982624054,
      -0.07940633594989777,
      0.07593744993209839,
      0.06249406933784485,
      0.08354268968105316,
      0.046381354331970215,
      -0.07350049912929535,
      -0.08303983509540558,
      -0.021268794313073158,
      0.10414732247591019,
      0.06511567533016205,
      -0.02152802050113678,
      0.012483506463468075,
      0.056357163935899734,
      -0.16164833307266235,
      0.016857825219631195,
      0.10986942052841187,
      -0.07157773524522781,
      0.0617835707962513,
      -0.12291383743286133,
      0.10137303918600082,
      0.0680178850889206,
      0.04215108975768089,
      0.22296197712421417,
      -0.10846634209156036,
      -0.13919109106063843,
      -0.10997512191534042,
      -0.12028160691261292,
      -0.10182062536478043,
      -0.0024996197316795588,
      0.022145457565784454,
      -0.13261719048023224,
      -0.032262835651636124,
      -0.023406317457556725,
      0.15647606551647186,
      -0.08093175292015076,
      -0.048954084515571594,
      0.2936082184314728,
      0.08962200582027435,
      0.014306087046861649,
      -0.09099913388490677,
      -0.003896221751347184,
      0.06513669341802597,
      0.05752427503466606,
      0.0854901373386383,
      -0.04831237345933914,
      -0.02707020938396454,
      -0.13184495270252228,
      -0.07803067564964294,
      0.03213902562856674,
      -0.023234784603118896,
      0.04192683473229408,
      -0.1278233677148819,
      0.09369111806154251,
      -0.059072911739349365,
      0.14564116299152374,
      0.013069056905806065,
      -0.00782585795968771,
      0.07509628683328629,
      0.08226452767848969,
      -0.10955696552991867,
      0.21122603118419647,
      -0.06392232328653336,
      -0.06012187898159027,
      0.20285502076148987,
      -0.012951002456247807,
      0.04697921499609947,
      -0.04033108428120613,
      0.2679310142993927,
      0.012916842475533485,
      -0.11136655509471893,
      -0.07501676678657532,
      0.06013470143079758,
      -0.17108647525310516,
      -0.11701591312885284,
      -0.12523692846298218,
      -0.12979966402053833,
      0.0996796116232872,
      -0.007000253070145845,
      -0.12264633178710938,
      -0.040836237370967865,
      0.013021049089729786,
      -0.0809919536113739,
      0.03701116144657135,
      0.038013141602277756,
      0.09702733159065247,
      0.08539202809333801,
      0.03197387233376503,
      0.04202403873205185,
      -0.04702741652727127,
      0.09151118993759155,
      0.02916688658297062,
      -0.12960095703601837,
      0.10185226052999496,
      0.05833485350012779,
      0.09635280817747116,
      -0.12809747457504272,
      0.011276460252702236,
      -0.11745110154151917,
      -0.12363621592521667,
      -0.029830358922481537,
      0.0015745186246931553,
      -0.13645657896995544,
      -0.12804526090621948,
      0.13642005622386932,
      -0.08622867614030838,
      0.15634824335575104,
      -0.004907416645437479,
      -0.10469622910022736,
      -0.022502683103084564,
      0.07849839329719543,
      -0.03349670395255089,
      -0.04068293422460556,
      -0.030799293890595436,
      -0.10750561207532883,
      -0.11377409100532532,
      -0.10786991566419601,
      0.1658189594745636,
      -0.06613137573003769,
      -0.06621706485748291,
      -0.01726427674293518,
      -4.0443806210532784E-4,
      -0.13654084503650665,
      -0.10873431712388992,
      0.06073050945997238,
      -0.13351818919181824,
      -0.08814102411270142,
      0.14180786907672882,
      0.02502552419900894,
      -0.044066447764635086,
      -0.05038575083017349,
      -0.050603028386831284,
      0.0482083298265934,
      -0.1165381446480751,
      -0.1160493865609169,
      -0.08026851713657379,
      -0.11231397837400436,
      -0.06885023415088654,
      0.06574660539627075,
      -0.09734448790550232,
      -0.012809595093131065,
      0.0573408380150795,
      0.03166148066520691,
      0.1380913406610489,
      -0.06615053862333298,
      -0.11863723397254944,
      -0.09567911177873611,
      -0.06483729928731918,
      -0.05183872580528259,
      -0.008329266682267189,
      0.048140138387680054,
      0.039161376655101776,
      -0.14575596153736115,
      0.02357202023267746,
      0.053607672452926636,
      -0.03650633618235588,
      -0.014810679480433464,
      0.09219036996364594,
      0.10696615278720856,
      -0.11241991072893143,
      -0.06387586146593094,
      -0.1237146407365799,
      -0.11584869027137756,
      -0.051496412605047226,
      -0.12354490160942078,
      -0.12770208716392517,
      -0.10035119950771332,
      -0.08617955446243286,
      -0.1448395848274231,
      -0.01680397428572178,
      0.056864604353904724,
      0.03864661604166031,
      0.03683799132704735,
      0.10493417084217072,
      0.11221279948949814,
      -3.684747498482466E-4,
      -0.11212078481912613,
      -0.08005945384502411,
      0.12941591441631317,
      -0.1280602514743805,
      -0.11857672780752182,
      -0.12859638035297394,
      -0.030681848526000977,
      -0.06330348551273346,
      -0.11755815893411636,
      -0.10622352361679077,
      -0.05503908544778824,
      0.11869807541370392,
      -0.033960144966840744,
      -0.10270430892705917,
      0.01895621418952942,
      0.13561050593852997,
      0.036448411643505096,
      -0.069011390209198,
      -0.10580822080373764,
      0.13263344764709473,
      0.07377246767282486,
      0.10644591599702835,
      -0.10461343824863434,
      -0.09996763616800308,
      0.06286736577749252,
      0.05975768342614174,
      -0.05196436122059822,
      -0.11583127081394196,
      -0.12975116074085236,
      -0.031107909977436066,
      -0.02451489493250847,
      0.10947129130363464,
      0.08686459809541702,
      0.040744852274656296,
      0.052757296711206436,
      0.10441970825195312,
      0.007599895820021629,
      0.10633322596549988,
      0.0048317271284759045,
      0.03258097171783447,
      0.11157254874706268,
      -0.10760177671909332,
      -0.010406902991235256,
      0.0064725736156105995,
      0.10262239724397659,
      0.011318321339786053,
      -0.07635526359081268,
      0.034156814217567444,
      0.05854354053735733,
      -0.1306937336921692,
      -0.11127284914255142,
      0.09949212521314621,
      -0.08441701531410217,
      0.09189128130674362,
      0.08869371563196182,
      0.04792461916804314,
      -0.1091199591755867,
      -0.13177955150604248,
      0.12479576468467712,
      0.031066030263900757,
      0.02365368790924549,
      -0.14371788501739502,
      -0.12882159650325775,
      -0.07194304466247559,
      -0.13378958404064178,
      -0.09989959746599197,
      0.1045302078127861,
      -0.004164478275924921,
      0.02308659628033638,
      0.15056602656841278,
      -0.13325482606887817,
      -0.09550081193447113,
      -0.11987689882516861,
      0.12513889372348785,
      -0.07668585330247879,
      0.10320816189050674,
      0.10777715593576431,
      0.10859022289514542,
      -0.11522482335567474,
      -0.133056178689003,
      0.05177175626158714,
      0.12464657425880432,
      -0.11264578998088837,
      0.12105357646942139,
      -0.08192262053489685,
      0.14224401116371155,
      0.05789346620440483,
      -0.06179273501038551,
      0.0829136073589325,
      -0.06560979038476944,
      0.11351792514324188,
      -0.03146188333630562,
      0.10414990037679672,
      0.024200599640607834,
      -0.05486074090003967,
      -0.013054689392447472,
      -0.024785427376627922,
      0.11502615362405777,
      0.07975247502326965,
      0.05743374302983284,
      -0.0594446174800396,
      0.026973526924848557,
      0.10090413689613342,
      0.0736825093626976,
      0.1207500770688057,
      0.12200209498405457,
      -0.09486065059900284,
      0.12977321445941925,
      -0.008713949471712112,
      0.12921999394893646,
      0.032052651047706604,
      5.786928231827915E-4,
      0.0657639428973198,
      -0.11929004639387131,
      -0.09603707492351532,
      0.06031753867864609,
      -0.07325573265552521,
      0.072091244161129,
      -0.05393566936254501,
      -0.13879041373729706,
      -0.013600116595625877,
      -0.12457732856273651,
      0.0904139056801796,
      0.1330280900001526,
      -0.05521538481116295,
      -0.011871663853526115,
      -0.06257317960262299,
      -0.11822706460952759,
      -0.13006120920181274,
      0.08692321926355362,
      -0.04958346486091614,
      0.010695247910916805,
      0.07387980073690414,
      0.11250877380371094,
      0.07916633039712906,
      -0.051926229149103165,
      -0.11933901906013489,
      -0.057263270020484924,
      -0.05603252351284027,
      -0.027608251199126244,
      0.10107173770666122,
      0.0728449895977974,
      0.05619208887219429,
      0.0708504319190979,
      0.011770622804760933,
      0.003998176660388708,
      -0.07497792690992355,
      -0.09990304708480835,
      -0.08110629767179489,
      -0.14117127656936646,
      0.08686941117048264,
      0.020742332562804222,
      -0.08534253388643265,
      -0.12910136580467224,
      0.09492047876119614,
      0.0910651907324791,
      -0.1143149584531784,
      0.045078929513692856,
      0.14790500700473785,
      -0.022802049294114113,
      0.10976140201091766,
      0.16979703307151794,
      -0.058068305253982544,
      -0.05129794031381607,
      0.09508392959833145,
      -0.03107801266014576,
      0.08579669147729874,
      -0.1017649918794632,
      0.02227913960814476,
      0.12452616542577744,
      -0.06730546057224274,
      -0.10609620809555054,
      -0.04843500629067421,
      -0.09919881075620651,
      0.06220894306898117,
      -0.10950308293104172,
      0.04967368021607399,
      4.153311310801655E-4,
      -0.07713554054498672,
      0.094039186835289,
      -0.13721522688865662,
      0.02818935550749302,
      -0.01294168271124363,
      -0.16106422245502472,
      -0.07879195362329483,
      -0.053538303822278976,
      -0.09188595414161682,
      0.01973295770585537,
      0.08540589362382889,
      0.05368480458855629,
      -0.16095414757728577,
      -0.11106258630752563,
      -0.0188746377825737,
      -0.08426309376955032,
      -0.10833008587360382,
      0.06621818244457245,
      -0.14243903756141663,
      -0.040070995688438416,
      0.07922248542308807,
      0.07144538313150406,
      -0.020079025998711586,
      -0.1318313330411911,
      -0.052223507314920425,
      -0.05883718281984329,
      0.010154000483453274,
      0.04261798411607742,
      -0.08128762990236282,
      -0.08114524930715561,
      -0.052884362637996674,
      -0.07900132238864899,
      -0.02519838511943817,
      -0.08845103532075882,
      0.04456033185124397,
      -0.03227010741829872,
      0.09054781496524811,
      0.008674983866512775,
      0.03735463321208954,
      -0.062338151037693024,
      -0.04907095804810524,
      0.08032272756099701,
      -0.0581025630235672,
      -9.239737992174923E-4,
      0.12813235819339752,
      -0.12653706967830658,
      -0.12580519914627075,
      -0.07553395628929138,
      0.05210123956203461,
      -0.0980670228600502,
      0.0584438219666481,
      0.06449519842863083,
      0.07975310832262039,
      -0.10060346126556396,
      -0.14902757108211517,
      -0.07564730942249298,
      -0.043175794184207916,
      -0.018939554691314697,
      -0.0033129106741398573,
      -0.035286795347929,
      0.013822321780025959,
      -0.0871853455901146,
      0.1821218729019165,
      -0.019758110865950584,
      -0.14657245576381683,
      0.12241221964359283,
      0.028661111369729042,
      0.05862044915556908,
      -0.11595209687948227,
      -0.09099113941192627,
      -0.02398436702787876,
      0.09085473418235779,
      0.04857930913567543,
      -0.0821995884180069,
      -0.09719786047935486,
      -0.03993457928299904,
      -0.11107096076011658,
      0.06320014595985413,
      0.057536885142326355,
      0.13094089925289154,
      -0.03116886131465435,
      -0.04095132276415825,
      0.10510507971048355,
      0.0398053303360939,
      0.03956078365445137,
      -0.13318991661071777,
      0.021124370396137238,
      0.0033049278426915407,
      -0.13108043372631073,
      -0.12071936577558517,
      -0.016092529520392418,
      0.04136914387345314,
      0.04943808168172836,
      -0.10942008346319199,
      -0.126153826713562,
      -0.02565990760922432,
      -0.05065002664923668,
      -0.042655590921640396,
      -0.21156905591487885,
      -0.02734103426337242,
      0.08376666903495789,
      0.006920125335454941,
      -0.02919773757457733,
      -0.1410376876592636,
      0.02107881009578705,
      -0.09399154037237167,
      -0.03893274813890457,
      0.05583823472261429,
      -0.0829775258898735,
      0.018742626532912254,
      0.006958908401429653,
      -0.1026596799492836,
      -0.053330197930336,
      0.0450400784611702,
      0.052929818630218506,
      -0.1430741250514984,
      -0.10497956722974777,
      -0.25941768288612366,
      0.03666042909026146,
      -0.012509576044976711,
      0.049718767404556274,
      0.05417101830244064,
      0.06278528273105621,
      0.13950413465499878,
      0.02844686061143875,
      0.07592684030532837,
      -0.0798892006278038,
      -0.028949327766895294,
      -0.010824832133948803,
      0.15220242738723755,
      0.0702817440032959,
      0.1612226665019989,
      -0.0795280784368515,
      0.08590453118085861,
      0.03916013240814209,
      0.1453973799943924,
      -0.013829033821821213,
      0.08370866626501083,
      0.08879920095205307,
      0.06292639672756195,
      0.16903311014175415,
      -0.08597971498966217,
      -0.0988898053765297,
      0.14585080742835999,
      -0.13084429502487183,
      0.11539921164512634,
      0.1106150671839714,
      -0.11457391083240509,
      0.008359534665942192,
      0.08696265518665314,
      -0.07585404813289642,
      -0.12981881201267242,
      -0.12304356694221497,
      0.08923278003931046,
      -0.09188561141490936,
      -0.0688776969909668,
      -0.030980948358774185,
      0.020689819008111954,
      0.11689861118793488,
      0.04337364807724953,
      0.14946968853473663,
      0.026143686845898628,
      0.03951715677976608,
      0.012790198437869549,
      1.5153760614339262E-4,
      -0.028568869456648827,
      -0.07423418015241623,
      0.0636044517159462,
      -0.12469422817230225,
      0.09421131759881973,
      -0.0554640032351017,
      -0.1205320730805397,
      -0.09238699078559875,
      -0.131582573056221,
      -0.10657565295696259,
      0.046050410717725754,
      -0.08331003785133362,
      0.12996788322925568,
      -0.028809091076254845,
      -0.05261877551674843,
      -0.014546912163496017,
      0.08262423425912857,
      0.024560073390603065,
      0.08973652869462967,
      -0.13968540728092194,
      -0.07030968368053436,
      0.01723393052816391,
      0.014032562263309956,
      -0.1027839332818985,
      0.058204490691423416,
      -0.12524142861366272,
      -0.12126458436250687,
      -0.0452377088367939,
      -0.01120385155081749,
      0.004371440503746271,
      -0.1667661964893341,
      -0.08615610003471375,
      -0.0961199402809143,
      0.011442029848694801,
      -0.03709467500448227,
      0.018334928900003433,
      0.029337462037801743,
      0.033753443509340286,
      -0.042130470275878906,
      0.057874634861946106,
      0.037716325372457504,
      -0.101862832903862,
      -0.010578498244285583,
      0.06243002414703369,
      0.08924069255590439,
      0.03464375436306,
      0.10861049592494965,
      0.07156772166490555,
      0.10860822349786758,
      0.029972804710268974,
      0.13261936604976654,
      0.001120557775720954,
      -5.326210521161556E-4,
      -0.1503748595714569,
      0.12044580280780792,
      -0.05102293938398361,
      -0.015574448741972446,
      0.0049878875724971294,
      0.015138695947825909,
      0.17242537438869476,
      0.10854554176330566,
      0.11708048731088638,
      0.010027103126049042,
      0.09686270356178284,
      -0.03987085074186325,
      -0.06196381896734238,
      -0.015695668756961823,
      -0.045751456171274185,
      0.05385971441864967,
      -0.07566552609205246,
      -0.11525052785873413,
      0.120906762778759,
      -0.06717919558286667,
      0.08989472687244415,
      0.16248668730258942,
      -0.0513591505587101,
      0.18521882593631744,
      -0.09736820310354233,
      -0.16757483780384064,
      0.011664011515676975,
      -0.05407632887363434,
      0.12243358790874481,
      0.13319078087806702,
      -0.09629179537296295,
      -0.09627000987529755,
      -0.139535591006279,
      -0.06825858354568481,
      0.0629756823182106,
      0.0018429345218464732,
      -0.13732151687145233,
      -0.080118328332901,
      -0.03467191755771637,
      0.11346302926540375,
      0.18068639934062958,
      -0.05019078776240349,
      0.07483292371034622,
      0.05476675555109978,
      0.13984309136867523,
      -0.0725930705666542,
      -0.055924419313669205,
      0.06393634527921677,
      0.028167065232992172,
      -0.1527102142572403,
      -0.10975617170333862,
      -0.09674707055091858,
      0.09233178943395615,
      -0.14050962030887604,
      -0.1403878629207611,
      -0.08330801129341125,
      -0.11206400394439697,
      -0.02425163984298706,
      0.1258886605501175,
      0.056002698838710785,
      -0.06276171654462814,
      -0.07822749018669128,
      -0.07215134054422379,
      0.10925021022558212,
      -0.02756066434085369,
      0.12862713634967804,
      0.11575436592102051,
      0.14661076664924622,
      -0.10287466645240784,
      0.12329933792352676,
      -0.052973102778196335,
      -0.08063914626836777,
      -0.04893781617283821,
      0.01977003738284111,
      0.11469318717718124,
      -0.04590427130460739,
      0.03256151080131531,
      -0.012596523389220238,
      0.13130155205726624,
      -0.056079503148794174,
      -0.03781196102499962,
      -0.009753508493304253,
      -0.13660065829753876,
      -0.07908819615840912,
      -0.06194014847278595,
      -0.026548683643341064,
      -0.03956311196088791,
      0.05792390555143356,
      -0.03294956684112549,
      -0.03532031551003456,
      0.018242578953504562,
      -0.05681835860013962,
      0.07676178961992264,
      -0.05712144821882248,
      0.1070014089345932,
      0.009892938658595085,
      -0.024981992319226265,
      -0.05850477144122124,
      0.14144694805145264,
      -0.0777447372674942,
      -0.017036687582731247,
      -0.03353145718574524,
      0.030973253771662712,
      -0.03513798490166664,
      0.0909089595079422,
      0.09254984557628632,
      -0.1390715092420578,
      -0.11218048632144928,
      -0.02899455465376377,
      0.0480029471218586,
      0.011939140036702156,
      0.027718912810087204,
      0.12002377212047577,
      -0.12926502525806427,
      -0.1258586198091507,
      -0.06990060210227966,
      -0.09451127052307129,
      0.1394420564174652,
      -0.018413670361042023,
      0.0922643393278122,
      0.06089413911104202,
      0.035600293427705765,
      -0.01706526428461075,
      -0.10528511554002762,
      -0.050651419907808304,
      -0.07540890574455261,
      0.10350362211465836,
      0.0695151537656784,
      0.07353159785270691,
      0.02252666838467121,
      -0.05527769774198532,
      -0.11059382557868958,
      -0.06540192663669586,
      0.04007161036133766,
      0.09865884482860565,
      -0.017368024215102196,
      0.11814684420824051,
      -0.07622600346803665,
      -0.01955968327820301,
      0.11826018989086151,
      0.11452919989824295,
      -0.11162881553173065,
      -0.13547886908054352,
      0.10699855536222458,
      -0.04915645718574524,
      -0.01618470437824726,
      -0.0510011725127697,
      -0.0372716560959816,
      0.10380037873983383,
      -0.042109616100788116,
      -0.11624185740947723,
      0.0032123865094035864,
      0.08304274082183838,
      -0.13312242925167084,
      -0.1444694995880127,
      0.04841005429625511,
      0.03461286053061485,
      0.017431577667593956,
      0.004554885905236006,
      -0.08316989243030548,
      -0.04647716507315636,
      0.06976847350597382,
      -0.12673825025558472,
      -0.13714490830898285,
      -0.09045083075761795,
      0.09647080302238464,
      0.09376801550388336,
      0.009216073900461197,
      -0.07276024669408798,
      -0.10429760813713074,
      -0.0484490841627121,
      -0.10176413506269455,
      6.491336389444768E-4,
      -0.139134481549263,
      -0.047819312661886215,
      0.01654578186571598,
      0.017483148723840714,
      0.09870653599500656,
      0.08760055899620056,
      0.03573423996567726,
      -0.08610422909259796,
      0.09499084204435349,
      -0.12779082357883453,
      0.04264259338378906,
      -0.010743199847638607,
      0.07785310596227646,
      0.0769909992814064,
      0.0949598103761673,
      -0.018892718479037285,
      0.06925074011087418,
      0.05852716043591499,
      -0.13094767928123474,
      0.08635293692350388,
      -0.09783575683832169,
      0.008204508572816849,
      -0.11789416521787643,
      0.09839340299367905,
      0.01824013888835907,
      0.04892020300030708,
      0.13646896183490753,
      -0.05198086053133011,
      0.050763100385665894,
      -0.050266824662685394,
      -0.05748900771141052,
      0.016037583351135254,
      -0.08752225339412689,
      0.0033259321935474873,
      0.02202071249485016,
      0.06491213291883469,
      -0.074244923889637,
      0.09154494106769562,
      0.08954209089279175,
      -0.11242517083883286,
      0.015883436426520348,
      -0.016900068148970604,
      -0.02433747984468937,
      -0.029591847211122513,
      -0.0705488920211792,
      -0.022953666746616364,
      0.021390723064541817,
      0.007246898487210274,
      0.067652128636837,
      -0.0172285083681345,
      -0.020066294819116592,
      0.0701158344745636,
      -0.08851925283670425,
      0.10196586698293686,
      -0.05888953432440758,
      -0.032401058822870255,
      0.13534331321716309,
      -0.07953334599733353,
      -0.10736189782619476,
      -0.038615334779024124,
      -0.10164904594421387,
      -0.048958856612443924,
      -0.014879284426569939,
      0.07595329731702805,
      -0.046446770429611206,
      0.04797589033842087,
      -0.10132589191198349,
      -0.1253231316804886,
      0.09590312093496323,
      0.07925727963447571,
      0.05112324655056,
      -0.026743939146399498,
      0.11813787370920181,
      -0.03761495649814606,
      -0.06319736689329147,
      -0.07775846123695374,
      -0.10180579870939255,
      -0.10100661218166351,
      0.0854334607720375,
      -0.04688800498843193,
      -0.0057692029513418674,
      0.0169841255992651,
      0.05513269826769829,
      -0.05205226317048073,
      -0.09536095708608627,
      0.07864133268594742,
      0.08671852946281433,
      0.009728699922561646,
      0.11400871723890305,
      0.06355876475572586,
      -0.006508159916847944,
      -0.12292233109474182,
      -0.11230149120092392,
      0.09923956543207169,
      0.08719778805971146,
      -0.10314130038022995,
      0.1418188363313675,
      -0.12617386877536774,
      0.027533235028386116,
      0.10252765566110611,
      0.03753978759050369,
      -0.03497964143753052,
      0.03196626529097557,
      -0.08515460789203644,
      0.06939245760440826,
      -0.019338641315698624,
      -0.0708136186003685,
      -0.1493639498949051,
      -0.09109266102313995,
      0.0011921889381483197,
      -0.0673544630408287,
      -0.10999127477407455,
      -0.03222358971834183,
      -0.08224859088659286,
      -0.03676967695355415,
      -0.12171154469251633,
      0.02127883769571781,
      0.051931511610746384,
      -0.12182685732841492,
      -0.09425155073404312,
      -0.0013011975679546595,
      0.15780405700206757,
      0.13112296164035797,
      0.023432783782482147,
      -0.108464814722538,
      -0.018888194113969803,
      -0.08417224138975143,
      0.05708613246679306,
      0.04366833716630936,
      0.05769337713718414,
      0.01772819459438324,
      0.09154409170150757,
      -0.1330268234014511,
      0.1376398801803589,
      0.08067414909601212,
      -0.12105514109134674,
      0.11317615211009979,
      -0.007093975320458412,
      0.07998891919851303,
      -0.10644013434648514,
      0.1250830590724945,
      -0.1129913255572319,
      0.06531815230846405,
      0.09648434072732925,
      -0.1333402842283249,
      -0.007084974553436041,
      0.018651127815246582,
      -0.10697435587644577,
      0.08308932930231094,
      0.044498030096292496,
      -0.03864426538348198,
      -0.07616662234067917,
      -0.02645125798881054,
      -0.013159024529159069,
      0.12213925272226334,
      -0.05601928383111954,
      0.17665238678455353,
      -0.10262199491262436,
      0.06803987175226212,
      -0.09312491118907928,
      0.0387316457927227,
      0.04962855949997902,
      0.09346175938844681,
      0.039972078055143356,
      -0.019851885735988617,
      -0.033728618174791336,
      -0.033934928476810455,
      -0.12423768639564514,
      0.1820620447397232,
      -0.07410760968923569,
      -0.0860331803560257,
      -0.1342303603887558,
      -0.09882505983114243,
      -0.024009712040424347,
      -0.1290103644132614,
      0.16029520332813263,
      -0.05992119759321213,
      0.10336846113204956,
      0.04744834825396538,
      -0.1136864498257637,
      -0.019098203629255295,
      -0.03077665902674198,
      -0.10895644128322601,
      -0.13825732469558716,
      -0.09817137569189072,
      -0.03314206376671791,
      -0.047404173761606216,
      0.042004525661468506,
      0.09103081375360489,
      -0.07628154754638672,
      -0.02850630134344101,
      -0.07906265556812286,
      0.12434691935777664,
      -0.04293041676282883,
      -0.045759279280900955,
      -0.006951247341930866,
      0.12218653410673141,
      0.15555085241794586,
      -0.13362345099449158,
      0.0432034507393837,
      -5.1391165470704436E-5,
      -0.0756191685795784,
      -0.06633961945772171,
      -0.12455299496650696,
      -0.09380676597356796,
      -0.09837817400693893,
      -0.048228953033685684,
      -0.11257614195346832,
      0.013618231751024723,
      0.1197582334280014,
      -0.04439421370625496,
      -0.024198109284043312,
      -0.029043421149253845,
      -0.01678854413330555,
      -0.024824392050504684,
      -0.06115042790770531,
      -0.07556803524494171,
      -0.09164410084486008,
      0.10420576483011246,
      0.11100071668624878,
      0.05423728749155998,
      -0.11319717764854431,
      -0.07931625843048096,
      0.08497069031000137,
      0.029619010165333748,
      0.01428569108247757,
      0.08885680139064789,
      0.06397049129009247,
      -0.05181686580181122,
      -0.1515701413154602,
      -0.10941959917545319,
      -0.009173632599413395,
      -0.06094649061560631,
      0.023807073011994362,
      0.03905559703707695,
      0.08472390472888947,
      -0.07055936008691788,
      -0.06675820797681808,
      -0.1297239065170288,
      -0.06613405793905258,
      -0.09268130362033844,
      -0.0013671325286850333,
      -0.03914664313197136,
      -0.02842971682548523,
      0.048494357615709305,
      -0.02827555499970913,
      0.05563382804393768,
      -0.14516866207122803,
      -0.1156749352812767,
      -0.10690374672412872,
      0.06334808468818665,
      0.047834981232881546,
      0.149027019739151,
      0.08638637512922287,
      -0.09205741435289383,
      -0.05314178764820099,
      0.0015172733692452312,
      -0.06663725525140762,
      -0.10623045265674591,
      -0.009051763452589512,
      -0.0783897191286087,
      -0.006269529461860657,
      0.07364270091056824,
      -0.08076801896095276,
      0.005954511929303408,
      -0.0864635482430458,
      -0.0054671610705554485,
      -0.1415027529001236,
      0.12130363285541534,
      -0.017445150762796402,
      -0.04947614669799805,
      0.08825965970754623,
      -0.014782809652388096,
      -0.049857694655656815,
      0.008099628612399101,
      0.024376288056373596,
      0.1707502007484436,
      0.001030042301863432,
      -0.032196804881095886,
      -0.05124702677130699,
      -0.005205565597862005,
      0.15304112434387207,
      -0.12125378847122192,
      0.09336218982934952,
      0.12288923561573029,
      0.05896519497036934,
      -0.11010520160198212,
      -0.027370380237698555,
      -0.13956737518310547,
      0.06568242609500885,
      -0.017473723739385605,
      -0.016538411378860474,
      -0.005441128741949797,
      0.0015642368234694004,
      -0.041255053132772446,
      -0.10575789213180542,
      -0.13783730566501617,
      0.010852742940187454,
      -0.07664157450199127,
      0.00853534322232008,
      0.04971160739660263,
      -0.030624646693468094,
      0.0035276783164590597,
      0.05012408271431923,
      0.0022551552392542362,
      0.13108542561531067,
      -0.09914237260818481,
      -0.0509645976126194,
      0.002212459919974208,
      -0.12421653419733047,
      0.05089733377099037,
      -0.04507406800985336,
      -0.09922921657562256,
      -0.12146269530057907,
      -0.07162543386220932,
      0.17089687287807465,
      -0.014160128310322762,
      -0.10343239456415176,
      -0.03662170097231865,
      0.0366024486720562,
      0.18455059826374054,
      5.141290603205562E-4,
      -0.08960967510938644,
      0.13639920949935913,
      0.11692465841770172,
      0.12157877534627914,
      0.08619781583547592,
      0.05494191497564316,
      -0.05258254334330559,
      -0.03698952868580818,
      -0.05808006227016449,
      -0.08101263642311096,
      0.020396532490849495,
      -0.11912582069635391,
      -0.13232284784317017,
      -0.019110936671495438,
      0.01788278855383396,
      -0.10131226480007172,
      0.0189873855561018,
      -0.10989832878112793,
      0.2168583869934082,
      -0.07166602462530136,
      0.008173073641955853,
      0.12775717675685883,
      -0.05942276865243912,
      -0.03929116204380989,
      -0.05787842720746994,
      0.07448811084032059,
      0.10062572360038757,
      -0.013375109992921352,
      -0.013310936279594898,
      -0.06001247465610504,
      0.04041040688753128,
      -0.10052703320980072,
      0.03515954688191414,
      0.1845051795244217,
      0.12624120712280273,
      -0.01833750493824482,
      -0.06699877977371216,
      0.002121431054547429,
      -0.07625032961368561,
      -0.0022303895093500614,
      -0.05891837552189827,
      -0.08308098465204239,
      -0.12830910086631775,
      0.03590892255306244,
      0.37039026618003845,
      0.23170088231563568,
      -0.02751557156443596,
      -0.07574819773435593,
      0.10324214398860931,
      -0.022202635183930397,
      0.10203303396701813,
      0.05985627323389053,
      0.02777283824980259,
      -0.013254242017865181,
      -0.06118443235754967,
      -0.05359334126114845,
      0.04589693620800972,
      0.06549512594938278,
      -0.018718838691711426,
      -0.13321040570735931,
      0.11549844592809677,
      -0.07386516779661179,
      0.05345398932695389,
      0.0038014487363398075,
      -0.1274532675743103,
      -0.1318330317735672,
      -0.05744030326604843,
      -0.007002593018114567,
      -0.09681177884340286,
      0.056336939334869385,
      -0.05134432017803192,
      -0.0014091324992477894,
      -0.07978612184524536,
      -0.028476985171437263,
      0.09578583389520645,
      0.07099083811044693,
      -0.014712861739099026,
      0.023682190105319023,
      -0.01846221648156643,
      -0.06443624943494797,
      -0.06289654225111008,
      -0.06077803671360016,
      -0.12748554348945618,
      -0.027349796146154404,
      -0.09160474687814713,
      0.05965745449066162,
      0.04463806003332138,
      0.1329505741596222,
      0.16797733306884766,
      0.06351486593484879,
      -0.04722318425774574,
      0.09094321727752686,
      -0.11848443746566772,
      -0.07635686546564102,
      0.12586824595928192,
      0.11444321274757385,
      0.06733421236276627,
      0.11503062397241592,
      -0.058255527168512344,
      -0.06510147452354431,
      -0.06647919863462448,
      -0.04235251992940903,
      0.1225188747048378,
      0.10339988768100739,
      -0.09088202565908432,
      -0.08905917406082153,
      0.1365787386894226,
      -0.08637634664773941,
      0.10143569856882095,
      -0.04226144030690193,
      -0.06357124447822571,
      -0.0014501025434583426,
      -0.11722183972597122,
      0.1181882694363594,
      0.06969864666461945,
      0.13983535766601562,
      0.01706092618405819,
      -0.04000760614871979,
      0.13778144121170044,
      -0.06751563400030136,
      -0.025630522519350052,
      -0.11186465620994568,
      0.0879017785191536,
      0.05341363325715065,
      -0.022148331627249718,
      -0.0071139088831841946,
      -0.07452043145895004,
      0.03813125938177109,
      0.06566122174263,
      0.06308051198720932,
      -0.11787455528974533,
      -0.08535221219062805,
      0.07117505371570587,
      0.14456476271152496,
      -0.05392139032483101,
      0.043110597878694534,
      -0.10133685171604156,
      5.429881275631487E-4,
      -0.04685851186513901,
      -0.11498509347438812,
      -0.014650827273726463,
      0.05586960166692734,
      -0.04155587777495384,
      -0.045884083956480026,
      0.008562599308788776,
      0.07405441999435425,
      -0.01669265516102314,
      -0.13538628816604614,
      -0.12291664630174637,
      -0.07782360166311264,
      -0.05371764302253723,
      -0.0891992449760437,
      -0.08839456737041473,
      -0.006233133841305971,
      0.07220662385225296,
      0.05020369961857796,
      0.23666095733642578,
      -0.09250845015048981,
      -0.07485383003950119,
      -0.022245332598686218,
      0.015360281802713871,
      0.09560254961252213,
      0.1111377403140068,
      0.05497066304087639,
      -0.0651802346110344,
      -0.0263806264847517,
      -0.14377276599407196,
      0.059782303869724274,
      0.04554187133908272,
      0.049420781433582306,
      -0.061690423637628555,
      -0.0300501249730587,
      -0.02460985817015171,
      0.06755755096673965,
      0.019353052601218224,
      -0.13917787373065948,
      -0.011476190760731697,
      0.08451813459396362,
      0.04732176661491394,
      0.0679965689778328,
      0.06598769873380661,
      0.0308464914560318,
      0.13809022307395935,
      0.04424425587058067,
      0.027010885998606682,
      -0.05527738854289055,
      0.14045323431491852,
      -0.007322133053094149,
      0.09544011950492859,
      -0.04708709195256233,
      0.14829561114311218,
      0.13379696011543274,
      0.028786901384592056,
      0.06186286732554436,
      0.03598394989967346,
      -0.11942285299301147,
      -0.05669790506362915,
      0.014988615177571774,
      0.0928138792514801,
      -0.1538032442331314,
      0.1320987194776535,
      0.04588231444358826,
      -0.1318451315164566,
      0.0626247301697731,
      0.037643127143383026,
      0.09265614300966263,
      -0.03378642722964287,
      -0.05272858589887619,
      0.06808358430862427,
      -0.006449282169342041,
      -0.06743474304676056,
      -0.04891674965620041,
      0.12739631533622742,
      -0.06940507143735886,
      -0.1382855474948883,
      0.12835465371608734,
      -0.12399816513061523,
      0.04070019721984863,
      -0.13289259374141693,
      -0.10461423546075821,
      0.059862881898880005,
      -0.15128850936889648,
      -0.09230855107307434,
      -0.10818278044462204,
      -0.09103325009346008,
      -0.0038527909200638533,
      -0.06539219617843628,
      -0.12275614589452744,
      -0.06833045184612274,
      -0.003897472284734249,
      0.017932649701833725,
      0.14055636525154114,
      -0.15032358467578888,
      -0.09837103635072708,
      0.010869906283915043,
      -0.1220538541674614,
      -0.034769754856824875,
      -0.01303937193006277,
      0.05796266719698906,
      -0.13539113104343414,
      0.10695771872997284,
      -0.11025018244981766,
      0.0875038355588913,
      -0.146992489695549,
      0.06545286625623703,
      -0.08896992355585098,
      0.0690990686416626,
      0.040629319846630096,
      0.08219648897647858,
      -0.010645093396306038,
      0.08689871430397034,
      -0.09619003534317017,
      -0.09086699783802032,
      -0.06771033257246017,
      0.08213737607002258,
      -0.0566808357834816,
      0.13000348210334778,
      0.10284923762083054,
      0.06289459019899368,
      -0.12476136535406113,
      0.0996725782752037,
      0.06946863234043121,
      0.11582741886377335,
      -0.12572740018367767,
      0.04360724613070488,
      -0.013997347094118595,
      -0.026692023500800133,
      0.1056947112083435,
      -0.08942673355340958,
      -0.12336882203817368,
      -0.0022161745000630617,
      -0.11566050350666046,
      -0.013473100028932095,
      -0.020482495427131653,
      -0.11811443418264389,
      0.10056020319461823,
      -0.12490040808916092,
      -0.04074825346469879,
      -0.08560055494308472,
      0.07965604215860367,
      0.02113659866154194,
      0.04767753928899765,
      0.03450505807995796,
      0.06627422571182251,
      0.06794361025094986,
      -0.0401591956615448,
      -0.013111697509884834,
      -0.06717267632484436,
      -0.09752652794122696,
      -0.11192742735147476,
      -0.15766990184783936,
      -0.0034398355055600405,
      0.005843587219715118,
      0.08370932191610336,
      -0.10869757831096649,
      0.18560807406902313,
      -0.061063170433044434,
      -0.07817590236663818,
      -0.03752671182155609,
      -0.006220472510904074,
      -0.04658586159348488,
      -0.036607421934604645,
      0.07579433172941208,
      -0.023950116708874702,
      -0.01195456087589264,
      0.13065245747566223,
      -0.018860232084989548,
      -0.10649792104959488,
      0.010146237909793854,
      0.00947834923863411,
      -0.04133206605911255,
      0.05696285516023636,
      0.10000542551279068,
      0.01862236112356186,
      0.09940990060567856,
      -0.10037054866552353,
      -0.02609787881374359,
      -0.11656104028224945,
      -0.2061367779970169,
      -0.06523077934980392,
      -0.0026282034814357758,
      -0.10715711861848831,
      -0.004169284366071224,
      0.1452547162771225,
      -0.07611206918954849,
      0.15870004892349243,
      -0.0479712188243866,
      -0.10941388458013535,
      -0.037682000547647476,
      -0.059053633362054825,
      -0.005042418371886015,
      -0.0910135880112648,
      -0.23124313354492188,
      0.23046471178531647,
      0.1105126291513443,
      -0.004745797254145145,
      -0.0027613609563559294,
      0.003214011900126934,
      0.021840622648596764,
      0.04739849269390106,
      -0.06426355242729187,
      0.07461652904748917,
      0.042058270424604416,
      0.16712185740470886,
      -0.15082772076129913,
      0.2755905091762543,
      -0.031494561582803726,
      0.007310633547604084,
      0.11917191743850708,
      -0.12088482081890106,
      0.08932550251483917,
      -0.057828228920698166,
      0.0501839853823185,
      -0.03348405659198761,
      -0.0403205081820488,
      -0.05500367283821106,
      0.09553998708724976,
      -0.021218502894043922,
      0.09910155087709427,
      -0.015015088953077793,
      0.05630728229880333,
      -0.0020211469382047653,
      0.006856766529381275,
      -0.016961518675088882,
      -0.08387111127376556,
      0.03733960539102554,
      -0.06283342838287354,
      0.08860867470502853,
      0.06503042578697205,
      -0.06764014065265656,
      -0.010450620204210281,
      -0.071604885160923,
      0.04620819166302681,
      0.055008020251989365,
      0.1118571013212204,
      0.04870237410068512,
      -0.026605740189552307,
      0.039885301142930984,
      0.12471555173397064,
      -0.07429159432649612,
      -0.015954434871673584,
      -0.045232050120830536,
      0.04692289978265762,
      -0.053331565111875534,
      0.022810915485024452,
      -0.06804528832435608,
      0.11263734102249146,
      0.04863112419843674,
      -0.13646622002124786,
      -0.09698890894651413,
      -0.002029983326792717,
      0.11166945844888687,
      -0.10657556354999542,
      0.008347989059984684,
      -0.024818124249577522,
      0.07056122273206711,
      -0.13353870809078217,
      0.07993200421333313,
      0.0777340829372406,
      0.10287439823150635,
      0.016935499384999275,
      -0.0122970100492239,
      -0.06740780174732208,
      0.03106449916958809,
      0.04956994950771332,
      -0.0858471691608429,
      -0.12031751126050949,
      -0.14051397144794464,
      -0.03525949642062187,
      0.11472728848457336,
      -0.04131966456770897,
      -0.060570128262043,
      0.044059231877326965,
      -0.07233798503875732,
      0.06477104127407074,
      -0.004223179537802935,
      0.07075000554323196,
      0.13338541984558105,
      0.009137293323874474,
      0.06373821943998337,
      0.07490997016429901,
      -0.05358845740556717,
      0.16827459633350372,
      0.040644362568855286,
      0.0742502436041832,
      0.028772201389074326,
      -0.12544435262680054,
      -0.13243746757507324,
      0.03222814202308655,
      0.04445980489253998,
      0.1350446492433548,
      -0.08330088108778,
      -0.1338837742805481,
      0.008992331102490425,
      0.015156392939388752,
      0.07885324954986572,
      0.00301939295604825,
      0.14204835891723633,
      0.04922230914235115,
      0.14980250597000122,
      -0.027355434373021126,
      0.1379423886537552,
      -0.03480149433016777,
      -0.08452083170413971,
      -0.10246594250202179,
      0.06953997910022736,
      -0.1452193558216095,
      0.06862875819206238,
      -0.046944696456193924,
      -0.10859671235084534,
      -0.05329541116952896,
      -0.05697041004896164,
      -0.0724213719367981,
      0.01254764012992382,
      0.1371299922466278,
      0.02396167442202568,
      0.0638735443353653,
      -0.07146614789962769,
      0.10368380695581436,
      -0.11637479066848755,
      0.1440294086933136,
      0.03733287751674652,
      0.031153909862041473,
      -0.04465492442250252,
      0.060959342867136,
      0.07714565098285675,
      -0.10532443970441818,
      0.017629247158765793,
      0.01880909875035286,
      0.029924627393484116,
      0.03278587386012077,
      0.016025185585021973,
      -0.011373446322977543,
      0.05113717541098595,
      0.19789917767047882,
      -0.1255921870470047,
      0.045387543737888336,
      -0.04460093006491661,
      0.26718470454216003,
      0.018374932929873466,
      0.09248543530702591,
      -0.003369892481714487,
      0.07969498634338379,
      0.08297940343618393,
      -0.10123664140701294,
      0.0011649479856714606,
      -0.11337921023368835,
      -0.10728185623884201,
      0.12229951471090317,
      0.1408839374780655,
